<?xml version="1.0"?>
<opencv_storage>
<opencv_ml_ann_mlp>
  <format>3</format>
  <layer_sizes>
    400 64 10</layer_sizes>
  <activation_function>SIGMOID_SYM</activation_function>
  <f_param1>0.66666666666666663</f_param1>
  <f_param2>1.7159</f_param2>
  <min_val>-0.94999999999999996</min_val>
  <max_val>0.94999999999999996</max_val>
  <min_val1>-0.97999999999999998</min_val1>
  <max_val1>0.97999999999999998</max_val1>
  <training_params>
    <train_method>BACKPROP</train_method>
    <dw_scale>0.10000000000000001</dw_scale>
    <moment_scale>0.</moment_scale>
    <term_criteria>
      <epsilon>0.01</epsilon>
      <iterations>1000</iterations></term_criteria></training_params>
  <input_scale>
    0.0092802576534832468 -1.3954463586328461 0.0093075499876283455
    -1.4082323131281689 0.0093236169343458176 -1.4112599536503203
    0.009322712392902846 -1.4015616648091853 0.0093085076237314247
    -1.3943921016166703 0.0093252960572262691 -1.4001521716898726
    0.0093580266818119491 -1.4052536914903004 0.0093531799241723789
    -1.3992431992001271 0.0092513686752585533 -1.378261504145079
    0.0092660223912315529 -1.3799108801380289 0.0092799212841229838
    -1.3866132622106837 0.0093425278474709907 -1.3976645880484941
    0.0093388310864263233 -1.395923644409792 0.0093360041078256913
    -1.3967035585471548 0.0093805847812969221 -1.4163257170871595
    0.0093364274937543165 -1.4143567281738538 0.0092965370871764159
    -1.4038737841493454 0.0092759832234718433 -1.3916720526241912
    0.0093128297342641234 -1.3795206439322258 0.0092669969156619174
    -1.3584453710681141 0.009291516642007433 -1.402424355878034
    0.0092959030268748178 -1.4155131824307037 0.0093072351937336217
    -1.4163527144179178 0.0092910193777008612 -1.4017621083679865
    0.0092091379400757022 -1.379145763285033 0.0092425522011094323
    -1.38492620393952 0.009335054462057471 -1.4038204260913416
    0.0093280423073928316 -1.3997361789119847 0.0092241412426416463
    -1.3735262862202999 0.0092394184032900499 -1.3762076754026917
    0.0092574242554372341 -1.3847181141888969 0.0092803572333801168
    -1.3851935449401029 0.0093068633380267302 -1.3903634823038189
    0.009315329241008646 -1.3965094462316594 0.0093419742497594226
    -1.4118264108382421 0.0093104073672549154 -1.4065567584377221
    0.0092882030921826574 -1.395206993445415 0.0093034333493466157
    -1.3887942021504245 0.0092952125453979219 -1.374278584411992
    0.0092478731719965734 -1.3568775449894876 0.0093427153544688273
    -1.4264756770094349 0.0093302182907145231 -1.433621629154133
    0.0093419934777900261 -1.4307524587052804 0.0093041494563813904
    -1.4122210210873929 0.009185964556679754 -1.3790704869652179
    0.0092503936354033506 -1.3863453936655377 0.0093516710177425095
    -1.4054588965881147 0.0093327180671677161 -1.4015801331527939
    0.0092199042052501911 -1.373640335885087 0.0092523958750233698
    -1.3797838901337849 0.0093218704377510068 -1.3983103956480518
    0.0093315963514065906 -1.3990078555570384 0.0093412277839040134
    -1.4012140595145104 0.0093314517269221849 -1.4036742945705427
    0.009329904277669377 -1.4141746429451691 0.0093215911830470712
    -1.4115424523935054 0.0093046753306376805 -1.4012245548719187
    0.0093354881380679489 -1.3998153701554816 0.0093437029314327354
    -1.3943346260894991 0.0093106284533848484 -1.3827102588580398
    0.0094442137823723994 -1.4659157525577922 0.0094465745027216101
    -1.4696376030566107 0.0094591867641093987 -1.4651447889170217
    0.0094397777229546977 -1.4484545974545255 0.0093494650765464093
    -1.4186205145666011 0.0094147103743661975 -1.4285128345233318
    0.0094527728909320329 -1.4385607896336006 0.0093997383536353601
    -1.4276097017780898 0.0092998941332561036 -1.4013303677449496
    0.0093578887139218903 -1.4109674876632003 0.0094237146516100555
    -1.4268484048861392 0.0094508683083892545 -1.4341049998935724
    0.0094505470184032356 -1.4339352793211304 0.0094641207191217668
    -1.4375015103791176 0.0094190052409401648 -1.4420949136130958
    0.0094366665489418744 -1.4488151899256654 0.0094390571872543291
    -1.4471131842465861 0.0094418936948352499 -1.4389294920629805
    0.0094429018956833748 -1.4345505473491851 0.0094070333916455376
    -1.4271222217797612 0.0094785366662226769 -1.5058209974307983
    0.0094657073107963941 -1.4988076681573497 0.0094790525410405838
    -1.4930569406023517 0.009501618168743205 -1.4873985107241312
    0.0094799102236723196 -1.4750285272343393 0.0095096229635495844
    -1.4833566360446893 0.0095079721283530764 -1.4871685429176642
    0.0094464100913510176 -1.4684406701364792 0.0093704777888172011
    -1.4462020600148917 0.0093896420030647552 -1.446748528118615
    0.0094228368209876966 -1.4519536183418089 0.0094619216231120861
    -1.4604513872959999 0.0095032799337334863 -1.4677245660855345
    0.0095349874593785421 -1.4792655824379546 0.0095104326192147412
    -1.4898358990113232 0.0095148862609144864 -1.4994318960849919
    0.0094811089193120816 -1.4957928373206222 0.0094829037198426169
    -1.4863730880170594 0.0094503663703845026 -1.4773946754149501
    0.0094392037413845442 -1.4750303875326938 0.0094630982173711607
    -1.5271017969693408 0.0094245456448493817 -1.5117122007068726
    0.0095020231483409351 -1.5177619582937569 0.0095126502524152425
    -1.5153271346087385 0.0095077513644779305 -1.512188839017486
    0.0095543231268529621 -1.5218890222301547 0.0095697481607155584
    -1.5263595200370745 0.009510297307395256 -1.507754926876598
    0.0094243060778173536 -1.489130833633489 0.0094176709304777968
    -1.4834639908321183 0.0094221833224348329 -1.4774963356643349
    0.0094762635203938309 -1.4855218124893861 0.0095601539454424154
    -1.5045617316874147 0.0096172017507553213 -1.5293505036893131
    0.0096152794043212926 -1.542552352052933 0.0095254019539706084
    -1.5357691265563365 0.0094862314785173988 -1.5308197351364925
    0.0094972565247943251 -1.5219087657800212 0.0094546483787276269
    -1.51152598188524 0.0094703923752575726 -1.5115125046606097
    0.0094503835878998292 -1.5341223495115659 0.009424509989626963
    -1.5199321938710948 0.0095247809517870988 -1.5348079629214502
    0.0095146327441927633 -1.5342687826789623 0.0095096044465860733
    -1.533085175093706 0.0095802903549144867 -1.5429939003302433
    0.0095965771159783435 -1.5448185978217299 0.009566347764903501
    -1.5333937097754882 0.0095086344393540342 -1.5274442156151775
    0.0095375991857607791 -1.530883860346137 0.0095534071106799789
    -1.5266038853839063 0.0096166707959680926 -1.535551526017001
    0.0096755043676747497 -1.5518115733121354 0.0097119088746426916
    -1.5757766387285261 0.009664988110417775 -1.5756559496747007
    0.0095326718245727568 -1.5575546886231322 0.0095328969284452364
    -1.5588040531042797 0.0095323403226216501 -1.548463865495693
    0.009453009199828763 -1.5279768446529614 0.0094692420439773505
    -1.5239722391640795 0.009450520699387014 -1.5432624697933399
    0.0094408032974008151 -1.5312076631267573 0.0095123991330103644
    -1.5414880844639827 0.0095014076771642638 -1.5422228874004529
    0.0094710854508489473 -1.5358009092362226 0.0095080192581910791
    -1.5357504834138362 0.0095073943431076714 -1.5326908450101249
    0.0095158353054291336 -1.5321332235247784 0.0094934464796558454
    -1.5357662291497016 0.0095545087403372843 -1.550375737063066
    0.0095998486161758424 -1.5530174298515702 0.0096510059892318169
    -1.5620423421739393 0.0096987474705755722 -1.5784439943432567
    0.0097198714007642583 -1.5977835644461111 0.0096419540420976217
    -1.5911846780960526 0.0095615073243221146 -1.5778246402479166
    0.0095650796778736762 -1.5788732681397672 0.009501363868770955
    -1.5590521934077934 0.0094553978251448456 -1.5422434641454654
    0.0094664071116394889 -1.5341410827636741 0.0094191246717516709
    -1.5446912343688497 0.0094377931409488237 -1.5377260622755864
    0.0094507114419430036 -1.5370863906250709 0.0094237197926393713
    -1.5326436311715308 0.0094082670241360487 -1.5227393077768485
    0.0094169317505731244 -1.5146117692167809 0.0093868699031083476
    -1.507351078537061 0.0094054225598645784 -1.5133625872344023
    0.0094370040621905415 -1.5269903028981768 0.0095029417273682203
    -1.5444561012987927 0.0095013870644581437 -1.5423943671669225
    0.0095300684281712199 -1.5465776247973382 0.0096189657502020898
    -1.5707848021806015 0.0096580597327684276 -1.5916096117213057
    0.0095754470014080776 -1.5840776879793399 0.0095275014584932354
    -1.5765347213397927 0.0095469313868434685 -1.5839275676186453
    0.0094497299020582307 -1.5583889771760702 0.009409734253292619
    -1.5410961648546546 0.0093903565151221679 -1.5277509067286799
    0.0095034058521206201 -1.5687310053718917 0.0095003892130655059
    -1.5598727050489107 0.0094488295456644916 -1.547907256170757
    0.009402810774835936 -1.5362237021440754 0.0094084782712882467
    -1.5230820964692264 0.0094189863262973839 -1.5147689161842062
    0.0093994460115021713 -1.5125738912845479 0.0093950762840992411
    -1.516380344375672 0.0094411224525455823 -1.5315388842519444
    0.0094707757679356307 -1.5411755524058581 0.0094411617110219895
    -1.5339772960187463 0.0094788613081106237 -1.536349006996663
    0.0095439431233083818 -1.5550213761213798 0.0096263635475952476
    -1.5826665803147157 0.009549361920063594 -1.5748043729615275
    0.0094959359890284152 -1.5698529442085951 0.0095702839851551751
    -1.592357443040435 0.009501913049510478 -1.5715784107368349
    0.0094531581297234296 -1.5534185691411917 0.0094135855815393032
    -1.5379614888380304 0.0096381914450630567 -1.5946117876496366
    0.0095677497686076553 -1.5785792072226696 0.0094784152418620673
    -1.5611935658531977 0.0094803288791682587 -1.5568899455894247
    0.0094954387571901215 -1.542515035228021 0.0094835193774046381
    -1.527908773932416 0.0094956130409898868 -1.5333971728016438
    0.0094879358687134929 -1.5374099474689444 0.0094960064413908696
    -1.5450914096761317 0.0094904685262911029 -1.5477056072675532
    0.0095128220430948426 -1.5488168029956266 0.009556010498717132
    -1.5486852854640931 0.0095723801719825898 -1.5533981964051971
    0.0096557556190424425 -1.5767617187761451 0.0095595307440603742
    -1.5626850192946564 0.0095231718128358251 -1.5636514819054905
    0.0096386581181201608 -1.5983825311911135 0.0096117304352897164
    -1.5867044602576266 0.0095595955176024042 -1.5676971881226534
    0.0095455774173192585 -1.5584949702328146 0.0096278899989625279
    -1.5894028902767308 0.0095974978468150816 -1.584347266553956
    0.0095201492176709302 -1.5671155707804989 0.0095097033634908464
    -1.5554679442340891 0.0095089518584121624 -1.5405567013235846
    0.0095342429702778789 -1.5363479122305772 0.0095544177286811978
    -1.5427250782805126 0.0095159149384827415 -1.538449387202431
    0.0094891585921501164 -1.5392174369154861 0.0095045000880019225
    -1.5437513186935539 0.0095706568198433498 -1.551219713885666
    0.00965362956066056 -1.5603740676669302 0.0096474209987752347
    -1.5569779801503376 0.0096634921613772615 -1.5613265631168596
    0.0095400406649475012 -1.5400220524286132 0.0095107427588036631
    -1.543509855217557 0.0096321751887462909 -1.5798462572377134
    0.0096519604458156737 -1.5800954190952357 0.0095803915919807844
    -1.5593658500169811 0.0095579884353623711 -1.5529896073684262
    0.0095476749210224709 -1.5639244283433544 0.00955182030016174
    -1.5674613527127816 0.0095188291524336034 -1.5552624575578216
    0.0095240476931839155 -1.5409299628519211 0.0094997193121403329
    -1.5256549215297375 0.0095447890679926633 -1.5304954733057421
    0.0095773678978878438 -1.5371369000337258 0.0094862969697819908
    -1.5187940900499759 0.0094695386225525629 -1.51833824710918
    0.0095231772883326536 -1.5273728847537751 0.0095699962126732218
    -1.531130490054984 0.0096330107326800026 -1.5376211731503822
    0.009603119285268644 -1.5318511759089128 0.0095911169020292814
    -1.5283329689980836 0.0095096221888769372 -1.5123038051504725
    0.0094976587701071265 -1.5184173010215827 0.00957598102659943
    -1.5466971338466975 0.0096216976829540234 -1.5540735176762948
    0.0095716277380753622 -1.5395848357161364 0.0095274600988069919
    -1.5335475994720524 0.009567732015400409 -1.550156286949562
    0.0095966433231383496 -1.5569594127459658 0.0095916729951690746
    -1.5494542023164044 0.0095678066900761333 -1.5275500906654431
    0.0095350028519252429 -1.5096426755350569 0.009633860978978068
    -1.5289245657189523 0.0096489196972775765 -1.5363087133362936
    0.0095173311383829479 -1.5075452523198589 0.0094951498334604374
    -1.5010008817932927 0.0095712946681444505 -1.5127316367466286
    0.0095572902787480121 -1.5044474690227281 0.0095178919260180406
    -1.4893368856426805 0.0095239425412771417 -1.4935141927069493
    0.0095794685068304047 -1.5073868463608051 0.0095628550480103287
    -1.5024851840072293 0.0095386303691038753 -1.5026089956884905
    0.009535836169093358 -1.5149315918425883 0.0095899082945426484
    -1.5244348382804063 0.0095786065538256172 -1.5203470837641742
    0.0095528266996612234 -1.5204813933475985 0.0095868214287513406
    -1.5357781150573928 0.0096198333757339816 -1.5407586886577582
    0.0095762888360766581 -1.5276479002862928 0.0095349466592820134
    -1.5001445998408303 0.0095229401603260239 -1.4812133492413662
    0.0096416797074175015 -1.5073262120512905 0.0096726546461294773
    -1.5246502540652296 0.0095729543706144921 -1.5064307332138824
    0.0095435790669094588 -1.49997577424104 0.0095897303419883589
    -1.5063701856880787 0.0095364781981762143 -1.490025128778403
    0.0094604547919980662 -1.4652503749123276 0.0095151504841394247
    -1.4783879610217108 0.0096203034703204911 -1.5050002748969376
    0.0096511022068872555 -1.5099110798266284 0.0096192668013932031
    -1.508070172055221 0.0096025739449050462 -1.5158700050018665
    0.0096135005209158353 -1.5164104997680135 0.0095432287421582263
    -1.4983098162678226 0.0095204055914939641 -1.4958308938865854
    0.009557301662987211 -1.5075993476849243 0.0095671727389332242
    -1.5087890633589165 0.0094831062130907445 -1.491912615383318
    0.0094542881024896417 -1.4683190131909791 0.0094667745864391376
    -1.4540435625393675 0.009534586438349528 -1.4682042687994163
    0.0095975454650533299 -1.4920344179971907 0.0095826157550397677
    -1.4939297962106999 0.0095637139670784448 -1.4923372293652677
    0.0095442305535619852 -1.4895718801866404 0.0095235477127549907
    -1.4816126024450598 0.0094844007886066284 -1.4644370068846486
    0.0095266870887550596 -1.4727496104248223 0.0096003865271144188
    -1.4939660694942156 0.0095958856286009111 -1.4981864314222029
    0.0095981249005470358 -1.5055234794002057 0.0096286107276883862
    -1.5161364509589776 0.0095778016093265861 -1.5022896757848063
    0.0094605307632227957 -1.4707038387521734 0.0094427526549134711
    -1.4617532193848533 0.0095305048931452075 -1.4734313052880781
    0.0095266622594315335 -1.4755123147301785 0.0094474205147727103
    -1.4609188766588046 0.0094267501371001917 -1.4440197516014461
    0.0094110601315446664 -1.4287796203230059 0.0094598638747278915
    -1.4344559185082386 0.009536246049227223 -1.4543995864565815
    0.0095625426464545932 -1.4658918874967861 0.0095603803274075649
    -1.4714572569519533 0.0095545043351505706 -1.4728000906513221
    0.0095730927844548831 -1.4726020583728983 0.0095827851480768163
    -1.4689796333752283 0.0096071823775640622 -1.472227684775623
    0.0096175297629342051 -1.4817920456347988 0.0095854818122460463
    -1.4859643956907316 0.0096036197440479941 -1.4978343155522917
    0.0096253949163565104 -1.4989126982706342 0.0095680479110202901
    -1.4762273216571697 0.0094689843130628948 -1.444148885928749
    0.00943994439966769 -1.4304914145480432 0.0094448216760138464
    -1.4461457598871952 0.0094240994692732383 -1.4453628266830734
    0.0094250553245095129 -1.4413473206223311 0.0094390690551915055
    -1.434066434672379 0.0094227489549838523 -1.423769828898896
    0.0094465491823338566 -1.4263155679422244 0.0094629960334192704
    -1.4337801662059007 0.0094595419906957044 -1.4374720009061193
    0.0094374661299747326 -1.4387077366365801 0.0094753321477114311
    -1.4471561085213898 0.0095345347050181124 -1.4554810470459529
    0.0095753760831385221 -1.4616773289406622 0.0095594920992845122
    -1.4585184761657159 0.0095329575312711936 -1.4590687215402189
    0.0095298704883858606 -1.4713357644428697 0.0095269540282118571
    -1.4816090257778403 0.0095372321072443571 -1.4761498962022244
    0.0095074763398847323 -1.4552371465259728 0.0094418862215508281
    -1.4276358572254171 0.0094001144640678651 -1.4089267563323478
    0.0093521066701668081 -1.4213406534172874 0.009353671973384008
    -1.420590801692091 0.0093875426524420453 -1.4217245596270429
    0.0094128541524897118 -1.419902692911446 0.0094162601345625634
    -1.4159870670030876 0.0094568097211908727 -1.4227581089337245
    0.0093748357403717862 -1.4129302435772819 0.0093338743348592417
    -1.4084069661355807 0.0093278728862141464 -1.4083968713437016
    0.0093874510616864699 -1.4177829788660827 0.0094623386838140165
    -1.4320606158922013 0.0094999928541871035 -1.4402597166490319
    0.0094540343097589564 -1.4307357363016815 0.0094248593861968721
    -1.4275947610585038 0.0094519087345056908 -1.4443045853213827
    0.0094212482348128932 -1.4489729045170472 0.0094576330134279307
    -1.4487353572097119 0.0094489136873676383 -1.4380641901697555
    0.0093714775374837637 -1.4084805936095997 0.0093191357028600281
    -1.3850323140847443 0.009298539330231826 -1.4012080499198303
    0.0093411250319019919 -1.4113393717200335 0.0093765089546332756
    -1.4175706285901135 0.0093933797221007163 -1.4127041925737263
    0.009392370226556486 -1.40769088007538 0.0094152183982345213
    -1.4138720486008003 0.009351886477140834 -1.4049226831970949
    0.0093296886082421607 -1.3986397423896855 0.0093002681059850181
    -1.3926816679060749 0.0093397808612804088 -1.3983370469015248
    0.0093699218045808219 -1.4073172794233775 0.0094258078011710891
    -1.4191647038368009 0.0093998332543267175 -1.412358785862305
    0.0093561407362669075 -1.4040273883597461 0.0094087764075856881
    -1.4237209919536142 0.0093652109922369459 -1.4257222606141835
    0.009348225286744824 -1.4197486279089688 0.0093378539846576108
    -1.410352114426747 0.0093323404563904356 -1.3895406987223451
    0.0092782834555985971 -1.3652808539244223</input_scale>
  <output_scale>
    0.52631578947368418 0.49999999999999994 0.52631578947368418
    0.49999999999999994 0.52631578947368418 0.49999999999999994
    0.52631578947368418 0.49999999999999994 0.52631578947368418
    0.49999999999999994 0.52631578947368418 0.49999999999999994
    0.52631578947368418 0.49999999999999994 0.52631578947368418
    0.49999999999999994 0.52631578947368418 0.49999999999999994
    0.52631578947368418 0.49999999999999994</output_scale>
  <inv_output_scale>
    1.8999999999999999 -0.94999999999999996 1.8999999999999999
    -0.94999999999999996 1.8999999999999999 -0.94999999999999996
    1.8999999999999999 -0.94999999999999996 1.8999999999999999
    -0.94999999999999996 1.8999999999999999 -0.94999999999999996
    1.8999999999999999 -0.94999999999999996 1.8999999999999999
    -0.94999999999999996 1.8999999999999999 -0.94999999999999996
    1.8999999999999999 -0.94999999999999996</inv_output_scale>
  <weights>
    <_>
      -1.4804380013913818 0.23316295932713238 0.021760082572434995
      -0.25308045843386662 0.1713114055166074 0.12709914528808369
      -0.3299594070464647 0.044627116005765265 0.31688283664948763
      0.43260140595710561 -0.10521946395592686 0.92918962277792116
      0.45472927280747594 0.041660181667770801 0.71262199520853442
      0.010567192577144689 0.37113814935236455 0.18404971702913092
      -0.68191810511054152 -0.45519140083613152 -0.30946064585340627
      0.16236253065992762 0.2577832186724302 0.58786530637225864
      -0.10743470471854084 -0.27435422773152146 -0.066070266103749012
      0.46023416912063858 -0.10973871539798945 0.58790415262282281
      -1.3567029596895357 0.41162429808861561 -0.25331479536046148
      -0.94399850675220798 -0.42053055888920032 -0.79297854217945463
      -0.32610412577933345 -0.22126923264308279 0.075241616295766769
      -0.14438561225426091 -0.044757193154009424 -0.86088845923156487
      -0.51254891993764573 0.37210158946918687 -0.65572310932249456
      -0.3852099558279406 0.31100474177936027 -0.086474635881531745
      0.3126470292196924 -0.30244172735188718 0.1142246261267454
      0.018763733121076688 0.38188393584132918 1.2560696204002135
      -0.33862304513864605 -0.66127362965484593 -0.47301507456406044
      0.15130189587880566 1.0162526055069554 0.59267329192638807
      0.21019123373410642 0.16779834445391642 -0.3265601819849418
      0.117739172513968 -1.2997888027219933 0.4991571689308974
      0.14923403016429146 -0.089381528888522549 0.31285820583933904
      0.080329681489390597 0.21779088607922076 0.22226680107853475
      0.29700346573257347 0.48284273510450054 -0.37650531318485025
      0.71697301487822329 0.71405427532905308 -0.021268054964064698
      0.80761063239267294 0.14836448733093358 0.37156890637135953
      0.24033255139807333 -0.69961038997881153 -0.44002855329336854
      -0.39686895940782352 0.14319963423665896 0.35399317533473529
      0.55719320257958471 0.12444383500447702 -0.3075190456153799
      -0.15370934700678707 0.40209102468268837 -0.36705324834086217
      0.51116355592622098 -1.4913724343410217 0.60338807716668263
      -0.34800870348896784 -0.93387225865774348 -0.1404764204598537
      -0.71135711685469927 -0.3153760572345144 -0.50839615145730854
      0.31841480232262137 -0.30905355570920845 -0.085782786786571086
      -0.7583317346240942 -0.3125700855266883 0.46708974002512937
      -0.63847241740528915 -0.29667244582923397 0.26190786132716631
      -0.060447567097669776 0.39537114600099943 -0.51483001266760708
      0.25699116965427143 0.22561626726857245 0.30225367217199017
      1.2237796066855919 -0.50302214817150215 -0.78940398783120747
      -0.44704897067346 0.27582248073132204 0.98097121033584933
      0.55466964962577037 0.066796501662433436 -0.16064001763911318
      -0.32032701987340573 0.43787219469401856 -1.1432645468816618
      0.52871477758573104 0.34303790683690527 0.088828945436425222
      0.20352832334262833 -0.094290209702023051 0.6862593102998471
      0.16369618991892051 0.32165100006614927 0.60310389877296366
      -0.44519196634273767 0.5540866118560539 0.8094094281487284
      -0.40004898685953361 0.91705757800296928 0.30471358858304581
      0.538444812282736 0.36670346582319074 -0.4585292286079336
      -0.27304841566833615 -0.32517218519125313 0.29537811291196969
      0.21465725948052536 0.39674365371615272 0.2168637529628171
      -0.22991154908049444 -0.072617407735953918 0.42099333518738963
      -0.7847662415416673 0.30479543446997021 -1.2086580403011244
      0.88104066946065696 -0.4122663738790881 -0.79531256313094201
      -0.17861891396925067 -0.68670984227863852 -0.38183940223121521
      -0.47171519605552498 0.44436866452075929 -0.36264167245057405
      -0.0596040760474148 -0.36929759842286541 -0.20666430314320383
      0.41987839154047196 -0.5143839725199747 -0.17394282679318021
      0.30597719302927678 -0.22744742629756143 0.17954254916470755
      -0.42581262043614987 0.076561981236709944 0.47607108705448409
      0.3187004958592165 1.2219960556756111 -0.46526070253511886
      -0.76983761576704191 -0.50762068053199849 0.31100203378676955
      0.64284714421226063 0.30176897274948578 -0.046847386855663198
      -0.52261438328650278 -0.28821741959764297 0.64893171679773054
      -0.97044404303550447 0.23907503531455618 0.33092573269308834
      0.093893110479976005 0.10304629950937566 -0.16627613317646187
      0.71155580292176046 0.013830480974403533 0.44364791949381083
      0.62959717056112718 -0.32595704605983333 0.61431441071412518
      0.68294858217260568 -0.87524693782328333 0.92252124127837787
      0.33440295587388141 0.68969627696281899 0.56985360850461608
      -0.27044717850755207 -0.085948951803987372 -0.07105488861369462
      0.47125901155097222 0.027762596084170189 0.17156999893543207
      -0.10798741915005912 -0.19970664923594408 0.02966114063077285
      0.30406752351463823 -1.1111735774461549 0.21699722713955061
      -0.94990500857157334 0.89608743420798487 -0.73739140340330933
      -0.67359904004346705 -0.38788832555409541 -0.76320233272501947
      -0.36754644512652035 -0.17851215053058081 0.18998893435197683
      -0.22937980911449732 -0.018137138644630259 0.21595309828439402
      -0.222782643824735 0.11989563703841991 -0.55694605841331668
      -0.01673057766737299 0.46676549084602348 -0.3551094244650761
      0.053529050414697035 -0.10815198076241828 -0.15328584169517789
      0.43534548267975059 0.37713826763073238 1.1979595372312284
      -0.15874130955469937 -0.63381874597254473 -0.57571099493169597
      0.36057747345313168 0.43341846225774222 0.31451684575690619
      -0.22043715110247566 -0.69154825787132757 -0.41802898076018402
      0.55877758988481219 -0.76614226374673888 -0.064432902699706376
      0.26720602550862294 0.087333672987072258 0.10933503744013782
      -0.22031954945218926 0.54887672419473832 0.063107192084900704
      0.52344779397753449 0.63169620210036703 -0.28124503841807175
      0.76733219578710121 0.43655541025673822 -1.2565339667994826
      0.72748099293563118 0.29965849159741853 0.5614465940222293
      0.68529929295838155 -0.093912131316527273 0.028476123026978949
      0.060737532547010496 0.54888907463606473 0.027616148268745679
      0.0017294019429110123 -0.37579521950488587 -0.15542345882189346
      0.28737763469432531 -0.098529144338550159 -0.95132938555884694
      0.17463712772957854 -0.9996632172093789 0.80839229025818948
      -0.87780127745067094 -0.44179046531403954 -0.64591520027710236
      -0.73836092287934774 -0.51113449251922771 -0.14307261544185818
      -0.09468759220731264 -0.21512227709338713 -0.082980821172479347
      0.52512558857335445 -0.30731679743565732 -0.077409619538136271
      -0.8156375471505346 0.1128310404803847 0.51253355745274232
      -0.31490139738779377 0.047594194894160217 0.17995455190295764
      -0.13171266490425998 0.15206471156171661 0.41568270958705916
      1.073625924703544 -0.10027536817537501 -0.55414750862860884
      -0.80919663426143851 0.47076962984202708 0.36974763632594615
      0.36620243556402143 -0.45203555540253221 -0.51262516166145455
      -0.57451607575494579 0.62576057813098085 -0.69278514557457238
      -0.14824151386159631 0.43321084215392358 0.034839168144674228
      0.11464660499873724 -0.2107839376257867 0.34173585688738933
      0.20743946932807461 0.59508241381178706 0.55460304092978807
      -0.20743554435693234 0.75809499405648795 0.41460340224085096
      -1.3094791868978581 0.6060800625980225 0.19465927021063273
      0.27189453262803592 0.57836169544737914 -0.039803037203486095
      0.10133384786755531 0.027395390366643516 0.44291176687211031
      0.079221536935561887 0.02855097980232572 -0.35180760985773801
      -0.0061516354417541705 0.58061399578015438 -0.25199530084002536
      -0.58725455006669891 0.2105139737587356 -0.95279860660626936
      0.65745050806666927 -0.72623155671401185 -0.12110151296828273
      -0.85783509427182292 -0.61316651932640132 -0.5254696620125886
      -0.19617849178704314 -0.36247061863185437 -0.16789253241826152
      -0.26686556431925668 0.55323947906640536 -0.36676765891601082
      -0.16951308323817871 -0.98608271180732232 -0.020853743340222077
      0.46968168437111613 -0.20789745653626771 0.12705033021033357
      0.24781528757045759 -0.0001651714998864187 -0.13372364216665431
      0.33455453204164265 0.86968307774148124 -0.26726888738345872
      -0.57594428112713458 -0.77924872051284344 0.6521199679146501
      0.37123418193666541 0.30451554763437449 -0.4419252555494132
      -0.20254439244188158 -0.64020773966750411 0.7097918718631322
      -0.5667090681370921 -0.088281516875639093 0.69104343849558769
      0.032909484215308822 0.15281219405531246 -0.2173656529866449
      0.36986699949051532 0.63054763459300944 0.69070494629338186
      0.42203462258564495 -0.15165453770893531 0.74185678212892658
      0.62932324961650266 -1.0389099223824922 0.47238396338108718
      0.12711732845236029 -0.010973564835493369 0.19288887749007103
      0.030484812001039203 0.2498045041537979 0.029570651074226066
      0.33993660579943746 0.14655392833475087 0.28348816963114903
      -0.10758184608163132 0.12419133561165968 0.67591028207972148
      -0.031744232998514407 -0.2623667088871498 0.42309949665939001
      -0.70255492242984963 0.52579090214103164 -0.51958834485471184
      0.17307777597978444 -0.78455824090764081 -0.44167481529222269
      -0.36612610614618057 -0.31905173665860237 -0.57684971373161464
      -0.1581625757937877 -0.32830836180305123 0.31322946508034033
      -0.40248773209066813 -0.30917914533671526 -0.94485261323168457
      -0.36810981188436148 0.37482835337426468 -0.22737471331360226
      0.17813169000140194 0.015476629236669783 -0.065841801634829847
      -0.45190819319248704 0.0071274040137510085 0.69716120091546985
      -0.4768525085696847 -0.48769077302932246 -0.43048609656816739
      0.89115599340215346 0.40241519582531071 0.24417891333225089
      -0.32709230217881485 -0.12264471798393618 -0.50582810207653928
      0.57944049494462813 -0.29713285570175157 0.13713607332270608
      0.53873990624865742 0.10380851416179662 0.23711344243211627
      -0.031301389561132896 0.62988221857441429 0.9228005615129613
      0.59304837893998885 0.29429827923984014 -0.15882283233962394
      0.60185316512971021 0.92959784320267169 -0.65187275001368372
      0.55398240993285097 -0.049175425502813258 -0.08111990495387307
      -0.042737804890156335 0.062489402055166246 0.46169091710529081
      -0.13450801874743396 0.48474351330549237 0.20922846021532471
      0.4837975456011796 0.28118696829060474 0.20805768549143056
      0.44038164946122771 0.32041980268722714 -0.11719868619123598
      0.37823269874504056 -0.18300490141813641 0.65526381447087501
      -0.44168381885797742 0.26065214144756083 -0.60076250301712897
      -0.34735316857814508 -0.23798884348704047 -0.53010550567671488
      -0.51064369735201087 -0.32691533344369161 -0.36113221805950213
      0.17820080115164774 -0.35395775472989999 -0.37077386873756929
      -0.93195538758268848 -0.82980219179601733 0.11779592828025356
      -0.3467061092998584 0.34397360745183153 -0.23076302284089256
      -0.041392117279944955 -0.80442068907367681 -0.2628425566441514
      0.41525339242426806 -0.7632381494377295 -0.2103477696401462
      -0.25276524631144137 1.3041494312450839 0.39697516119681925
      0.15993031102345048 -0.069357935151339437 -0.40565693461292068
      -0.26593881881121745 0.56213308293918351 -0.016188087652309294
      0.43647835292015397 0.65184853810936816 0.19950955518280677
      0.15434538721603602 0.23879046597696166 0.73438376312208331
      0.94639800403443808 0.42264335287820148 0.21552508536831477
      -0.13470516995323761 0.47069541718794472 1.1640662234111843
      -0.31241711218642565 0.57607074233448519 -0.19325275228137306
      -0.1055984609812889 -0.21434403642933497 0.022338320186330345
      0.62151389906621302 -0.25969793328586877 0.53716663871348935
      0.36644246303500771 0.42208700432052049 0.54004458407454836
      0.19131527079302937 0.20413323049146145 0.51936687701630202
      -0.059164393557925091 0.1611147016952027 0.19324008976762908
      0.89928050868734899 -0.28224359581806818 0.23521860706568457
      -0.44510503517419264 -0.45147067830788445 -0.18685614814923962
      -0.57088606962275601 -0.38876369744552702 -0.63016577216642211
      -0.44978549980044985 0.22727056522983841 -0.17202320120650075
      -0.35591500164442763 -0.93522607943550007 -1.2450707591694883
      -0.19997662989729029 -0.15206498888390871 0.49166957610451045
      -0.45032965408593217 -0.0120365011963763 -0.98505453747863903
      -0.66250870484024316 0.11277911022935741 -0.84394200176037226
      0.036784210943567985 -0.33837827139677956 1.4642436870597886
      0.16072489322781225 0.10789057833468962 0.16987954831576188
      -0.39071818728088281 -0.16018974227102808 0.64730506762918694
      0.22840907382026324 0.62749594345737081 0.85199036789203897
      0.35303892216955784 0.054257083967696934 0.26159326791220733
      0.52341155393153593 0.98250515275404271 0.22424015547415213
      0.14722380967260357 -0.13876333750475706 0.43858386164549912
      1.2628970358815312 -0.037393050470640309 0.43755272792837757
      0.017335722915720012 -0.25893481071172786 -0.26974267793028034
      0.17133834324355024 0.77618275311088181 -0.18166074495112608
      0.49613799154000943 0.46195324586844816 0.48986771871770002
      0.69756776976287005 0.10238617454924306 0.26660969291357367
      0.56188680114094924 -0.2210409199922167 -0.053226727092184324
      0.40913281667004736 1.004126610987407 -0.16580038395367455
      0.23444226061661588 -0.426309537461592 -0.68325764549457535
      -0.12426015369764142 -0.63378797952268762 -0.57860284072797752
      -0.7107238295729178 -0.42546020633985959 0.35272064437202921
      -0.0010460401048363757 -0.31010046796146129 -0.7710669780959073
      -1.3416556454247981 -0.38322240400055085 -0.12649834814148006
      0.54719166185872836 -0.46379822356542549 0.025901437531143046
      -0.81849389963936914 -0.73896044355633905 0.07129031643655892
      -0.53475406445842788 0.1669911798603449 -0.39315809679511654
      1.1440524327491348 -0.0034338070850530116 -0.15613385601700361
      0.33330797001013746 -0.20122105260034562 -0.32971154652659473
      0.6751487372922218 0.4124919073712886 0.53718741624258004
      0.86630404319451459 0.32126768353921292 -0.049142008131000149
      0.092736690062518681 0.41178062225348666 1.0631438509401598
      0.15898207078492119 0.11583846437490743 -0.09155013085552613
      0.28507466815209115 1.339266952991456 0.070958989402553033
      0.20579186686399947 0.30604405633001569 -0.33722187657483238
      -0.33826791366870707 0.41534683741030648 0.82894062996601803
      0.15379073570862845 0.28803101586731999 0.60916141900876797
      0.44335015039322345 0.67083917358440504 0.14289659730845899
      0.32607694435777507 0.76917462863365882 -0.28862054513859248
      -0.25185513765967327 0.54467746254792893 1.0919950755318071
      -0.0034958565092585436 0.1600143719831485 -0.33885398045573278
      -0.75129275411164509 -0.076474896658044481 -0.7842317590737492
      -0.93028202697258755 -0.61906898747047379 -0.27010660095620337
      0.33831216969198202 0.018071807040915412 -0.31675333413542367
      -0.64624681846192422 -1.0888856960717115 -0.36805771151378597
      -0.26491175264966188 0.54811202707657503 -0.5176696738036356
      0.062480037818403202 -0.22953649782310304 -0.67016664801439552
      0.18078036003611919 -0.11129816740399527 0.25901803018505354
      -0.31793330422241955 1.0609446357035108 0.11904609505816735
      -0.34324622702749763 0.56249691243147992 -0.030866002119374018
      -0.60031977965630945 0.674319745945135 0.46109557164493747
      0.48817654386619419 0.65068755587242233 0.0021774838443066316
      -0.16945758557080651 -0.11047506561991877 0.32904035012809069
      1.1683843733702557 0.19304730953734892 0.012397845093474122
      -0.043310729355269986 0.06912835809756579 1.1798331146485979
      0.070900903867680595 0.37185714259579489 0.3596151478296577
      -0.56857161673337131 -0.27718306180641156 0.50259164887356289
      0.94828230357719223 0.59649125042306061 -0.069500282025313095
      0.78064250717971517 0.084302076329179215 0.29099633910066558
      0.50857111293603652 0.39316548333275975 0.95595693572283991
      -0.20647231160082269 -0.29332929645997946 0.3849661403601542
      1.0447197616997541 -0.029738124896093541 0.022541706333450189
      -0.11851640307360403 -0.59394752036859289 -0.12780499000112611
      -0.72502963898091777 -1.202389361373321 -0.358394786389024
      -0.18473611022732728 0.047609922866055816 -0.16259696927461464
      -0.57840089537229611 -0.45655079464085402 -0.83741360501163964
      -0.35709192106688187 -0.36491506050915312 0.60346922188251795
      -0.40095646250952144 0.19049189611513218 0.37402513151456934
      -0.52687154311289175 0.42704772918827466 -0.072416666807375532
      0.23582607259358584 -0.22417434954079821 0.87888826520052532
      0.38870919631014861 -0.36217002977516222 0.65331226479297322
      0.098758278840666361 -0.85180104818428104 0.60168524272235568
      0.53104520026720425 0.26848916253257538 0.52794223024718456
      -0.22970290826951142 -0.31329969730599433 -0.28839095933714637
      0.39734371488960402 1.3410399757152227 0.019993187958060415
      -0.31518373920264281 0.052751828469367719 -0.025491713806492206
      0.80620958058940895 0.06539240986556713 0.40035113549988255
      0.26247353901968529 -0.79387954826304197 -0.32006366908100958
      0.4572652471299502 1.0820640558953483 0.74354938698583495
      -0.24180637863631529 0.75903341378922939 -0.19667449955145772
      -0.11195423108556787 0.9385582355664529 0.49798254119716251
      1.2493743599118323 0.0078888215314916414 -0.36151844411746731
      -0.042900441141340437 0.90192293114402411 0.022658944010612737
      -0.11425208053602433 0.060908661910192945 -0.47761219502409147
      -0.16001496597738016 -0.86235295599287631 -1.0238168288688045
      -0.28094276524827433 -0.088236242961317823 -0.21505444144642544
      -0.43636862771949403 -0.67523334973002669 -0.41750925256931559
      -0.67231138086478448 -0.33367657705912807 -0.31859470142070856
      0.56531721653741229 -0.25119349236632499 0.23409863632720063
      0.52385697834672895 -0.4266744693594422 0.6211815491748135
      -0.32702572892977844 0.032117854323743679 -0.32403518959185917
      0.77909491864136349 0.45131410480194611 0.0023923820180108729
      0.55783033730979359 0.26930592425108585 -0.84682615661134475
      0.54799160751631337 0.49471268339246954 -0.10328578414335854
      0.36268326130780842 -0.43703063286242988 -0.199139956605628
      -0.49507756794197522 0.49702694916649182 1.6695933158586651
      -0.1702053008318698 -0.54364602106719395 0.32791873044345959
      -0.18690279418218975 0.60720923367688695 0.047720889984504834
      0.26092522173862354 0.23321844857178692 -0.69156693697041394
      -0.46501264066985781 0.5223136497344294 1.2380273667749011
      0.68810456115194651 -0.15261974672854348 0.48929293064816659
      -0.15256447739315349 -0.11358528748061474 1.0676446566041662
      0.50281600158341977 1.3853499004059859 0.029222989842788531
      -0.43812448819293143 -0.40379069295610587 0.97617884986532533
      -0.0015623124208873896 -0.094011522624544722 0.15952455951434069
      -0.36062761325053005 -0.14626663667472256 -0.82998396995266321
      -0.53077589989003737 -0.42244926734751098 -0.14380749809033014
      -0.46417554519646848 -0.57830248988574096 -0.5786850894504727
      -0.42230451573230521 -0.49593600093060086 -0.45981609690644326
      -0.26968103150481176 0.43144839966803833 0.098264133175039514
      0.31185097338400125 0.25315347344623801 -0.48825688351722085
      0.94777323975287719 -0.49273485979121096 0.024723534706375269
      -0.41029472763351904 0.67636293177428797 0.17897473113355186
      0.32983890513288733 0.30535511524700287 0.2952476472531203
      -0.71518550092814503 0.24053727163449726 0.43646692659905018
      -0.30835804777264142 0.35350053924204922 -0.67485651827789128
      -0.026907699608145465 -0.22892755056762643 0.34241543399468527
      1.6458690327338805 -0.23465809524152401 -0.58229004425234598
      0.60522565852698118 -0.40518386583459937 0.45245559267067542
      -0.018237296546484792 -0.082200625902024316 0.20010733711464668
      -0.37163961559925329 -0.50960126225004265 0.6188321891846339
      1.1987708289737578 0.49337759822944766 -0.092582836596888207
      0.2584881558395471 -0.042274907540079142 -0.15780412635140229
      0.94008538981786594 0.449554682478914 1.2413227063306158
      -0.37970433611038651 -0.36225029497157363 -0.53471805304774889
      0.91506842986115444 0.053075168508736753 0.032838681325633265
      0.21350105982588827 -0.29107034586312708 -0.12903617397838893
      -0.68930465139626407 -0.14711897314907013 -0.64836673595582017
      -0.012765811862660207 -0.56627574731693753 -0.44942396533973245
      -0.31776074151624523 -0.51618569628197553 -0.42415858535413731
      -0.51669161259117546 -0.50449523905868909 0.36810930707419343
      0.14735217139361864 0.21647273811366818 -0.044994200065676421
      -0.60760546533007154 0.94014667052865009 -0.35542573127728522
      0.14631308279397159 -0.69858571306016204 0.81715291181512328
      0.0089613608428009313 0.44317631893676607 0.053702926229233942
      0.060352059896646576 -0.48393635446646133 -0.090386810860142844
      0.31596240278597149 -0.37784041576517186 0.38607488786816779
      -1.0022524485407467 0.042859437280186173 0.22798498849805593
      0.45954078260744219 1.2606002335960134 -0.050637962185700637
      -0.53826930640859172 0.75098102318397419 -0.35537120055929167
      0.49053583987813365 0.027951924554107183 -0.34637729366142317
      0.22491540638766599 -0.17938555211580415 -0.42757286356162033
      0.86961178893104063 1.02509311603763 0.18830914742773427
      0.015847352548565528 -0.027543493404098882 -0.1354198489643211
      -0.27220462116016014 0.89977222169058235 0.4890186512696274
      1.1360861542908371 -0.74425799697114803 -0.17265086749842154
      -0.49155383407541653 0.88175159547593318 0.26187025987599899
      0.0089817561462878261 0.20238518865089458 -0.058089032924734593
      -0.16033816817075514 -0.53585891522579576 0.17285473920958097
      -0.760720839140128 0.081635289939572989 -0.78113488727039426
      -0.13460890914870369 -0.22423831112283582 -0.58155176536090836
      -0.47726644904457549 -0.45715357471075269 -0.63556014995417842
      0.41103106303329184 -0.07944273923790196 0.15843487459911718
      -0.18895901284143493 -0.51023816178711967 0.63927392652296711
      -0.055901308091364794 0.33951516278227778 -0.87402240952879307
      0.83017338355623516 0.19795540672884934 0.20893176240845662
      -0.14065244193620213 -0.0017431470255006131 -0.1878406652942351
      -0.34912754892338721 0.31545517860833072 -0.37844873870905943
      0.50893599930878486 -1.0355037428398179 0.074148629526029408
      0.48629522737291586 0.54007370352669415 0.85533431682895711
      0.32820017142317309 -0.48804381354283632 0.82261473910719796
      -0.30287078517122762 0.59506467084547943 0.08991560035729311
      -0.63517757552094523 0.17866439690834485 -0.18050898496173332
      -0.37791579042828144 1.1452959473321611 0.85354158392077317
      0.32302099521116406 0.032572645443901635 -0.098381786015868944
      -0.37984312870174153 -0.26853098585742025 0.78031200195076611
      0.51119010739692872 1.2314894110137891 -0.8083310638286898
      -0.0085413416903864486 -0.23971246697672008 0.99931914386591636
      0.40407352468411978 -0.2189268770533449 0.11430387174778586
      0.25638363434791189 -0.22034061523454179 -0.54652065949281248
      0.39151266099436643 -0.63166890587487501 0.0040522055536944277
      -1.1141749333200901 0.0091012576611908674 -0.29024396944585629
      -0.5840104058360841 -0.49018575113767987 -0.43147335428137645
      -0.73599329227268473 0.44405763219321648 -0.42552508239866388
      0.17535991248286981 -0.21362844877249257 -0.30463927556972831
      0.1317212691627756 0.27940202874411491 0.59700617993159111
      -0.90090647554765779 0.57984296784600986 0.36991737218375192
      0.11329519294426546 -0.19847063452315736 0.23265445082282787
      0.10331000041607233 -0.61772430203440643 0.27902037957454889
      -0.28736928508225928 0.56401837578816749 -0.89938554766745771
      0.11025672321987434 0.77720752460005038 0.59654847910802922
      0.64495191721416778 0.58717761969672322 -0.21218016344982393
      0.58476950260660809 -0.45890133878600148 0.5612596279386709
      -0.017249454585506162 -0.68444841210855245 0.24615144498317484
      -0.10742157321215479 -0.2500916640396964 1.2556816469187537
      0.74112985223878014 0.54967081426966913 0.12147024472026609
      -0.1733609992011951 -0.64776492416151954 -0.0066986248139818978
      0.46420658911845247 0.42398510501046321 1.1190567537508043
      -0.51167881465093379 -0.033821339315489092 -0.13009326678484451
      1.3768492178488023 0.4597855025260939 -0.1444807818938082
      -0.049869038950101294 0.44538848935786457 -0.17724234135839198
      -0.71495368921038116 0.57851273198423447 -0.43464952982140231
      -0.051765305605170765 -1.2276669668734952 -0.20677824862340147
      -0.33129703914315201 -0.62545249377402035 -0.41565444532680329
      -0.36551827426923872 -0.78017934510620046 0.29420972985827543
      -0.50423810546722025 0.15077278419223153 -0.19228745650479603
      -0.36559289492700708 -0.28678635897251409 0.54835054790365978
      0.73405764151272856 -0.91832548417400761 0.43002855750848451
      0.27409113261464901 0.27657876962756972 -0.19442285456224917
      0.24497174038547989 0.33835098866365326 -0.81050812828990437
      0.1066079299221467 -0.35597657576804365 0.40368439312672033
      -0.67237417116055465 -0.011516520985533699 1.162002791684396
      0.50431181523211677 0.54407577442401245 0.60019063283499796
      0.0020666644343720572 0.45275292273903744 -0.77771931122354254
      0.41360644161560534 -0.17688663476834479 -0.53324572569805684
      0.34341074645774744 0.060518344884061916 -0.28994223021922338
      0.98203386641775126 0.49422768932216676 0.69311474737314338
      0.19228007430297051 -0.21891137482105885 -0.70167007429311501
      0.21406300109106152 0.25405695147024215 0.31101767836094474
      1.0657811553794878 -0.27151332830132091 -0.21520098700925069
      -0.20993086853016549 1.6101498694325393 0.46896796470942914
      0.30036770484530101 -0.18808148652966525 0.41419668958700706
      -0.11406526059267962 -0.71465818023549077 0.36369863669293939
      -0.26143081868343027 0.01308437234889028 -1.0934003359258271
      -0.42981045857444267 -0.36739438981317951 -0.59638220236648631
      -0.24841413525591055 -0.14471585921391239 -0.79154550810831814
      0.11454431665755563 -0.40123424974650757 0.16671962399983292
      -0.027710767674071386 -0.57921881384397078 -0.4131473399882854
      0.53145552820059205 0.62470532678665758 -0.79726640505833857
      0.52027644994328526 0.13724447890230262 0.2155773972703624
      -0.25476189738364896 -0.24548588285447293 0.35920916932680774
      -0.7561403831260286 -0.035457712043618465 -0.34768333332942597
      -0.014982664995584956 -0.40858148295836877 -0.14805320989095677
      1.4700358868005796 0.26365855331343668 0.53193596287660661
      0.33010570126310951 -0.04746071565451504 0.42854367322682202
      -0.97588232624418736 0.26317632361570031 -0.28379168349950695
      -0.30882461041271014 0.45132286052669712 0.062058873014630749
      -0.44878732882698108 0.60382140262901751 0.25642359982866442
      0.58682677956609586 0.054310199035431446 -0.43062384092068451
      -0.49912243850553856 0.46472324566276751 0.3327550559594416
      0.11223131155765054 1.1426423012215445 -0.21909610701247909
      -0.5183473449702376 -0.22282225702348182 1.6174660249110404
      0.48821358505945667 0.55961638990496054 -0.23821163275412827
      0.47547609578202221 -0.036529815615471521 -0.6649062597292027
      0.042463302200956711 -0.26203111219645298 0.10921867023991565
      -0.9145070869776033 -0.71741995102357148 -0.40744291802164873
      -0.34539244878139591 -0.063466215823153233 -0.013406027245386172
      -0.65159522892897648 0.026903369539436939 -0.46920253548865576
      0.21760761336533702 -0.0013306979641437581 -0.59242060967010723
      -0.14463017787896329 0.17246776408030798 0.34236094117920624
      -0.41451347363054636 0.45114385149693625 0.074930523385924139
      0.017804930815582199 -0.44001765337728244 -0.52991552886700477
      0.066670291221883185 -0.60174336956644126 -1.0066835376487275
      0.41350115282061695 0.26707448388578198 -0.25127940815600097
      0.22822799874616606 0.18969090165083127 -0.3890879030878816
      -0.042598633839659714 0.47128948506153279 0.32290010486355297
      -0.22725517391213565 0.76309170604808352 0.35611916167446012
      0.0027626134590062134 0.60339637974545901 0.01518383692507644
      0.29375611354324094 0.25795173591160819 -0.58869260090733222
      -0.41036213446030795 -0.32526287481366067 0.15534222232764935
      0.35499956634797863 0.44900818029534539 0.063105098211919355
      -0.22870775657624789 0.0070508592697431397 0.44524677258086287
      -0.22546421337825137 0.42538073620639288 -1.3623493154120914
      0.30818546728539065 -0.49566279146782399 -0.67123144793814749
      -0.42390777349865544 -0.94677014124470493 -0.27192562759660649
      -0.27691827301630523 0.058943512713915257 -0.24502050305351794
      -0.023241437100271583 -0.90808746474018587 -0.44014019151896355
      0.47652957630454867 -0.68570071341934646 -0.3715571977091609
      0.11385254859957818 -0.37825251223376599 0.20459402931945209
      -0.51292507511438468 0.090015283203620622 0.036117862210590677
      0.2783324534547213 1.2036278521403485 -0.21900731345182106
      -0.59239266135395252 -0.38963296082438459 0.094333918870559572
      0.76733114483166753 0.45546114379495634 0.064640823881869217
      0.037864486393397803 -0.28635514409110785 0.3142618020593938
      -0.68424921159039853 0.58331344410459585 0.39295057809340561
      0.083410492122897542 0.2723115106514174 0.1029702400585234
      0.14194122599668013 0.14642658058422134 0.46810624435901144
      0.417293977468428 -0.43713875058246587 0.61427569306528584
      0.47919286959773305 -0.16304919882302607 0.62258734817709271
      0.14583060228826036 0.36783860299843346 0.3015376791198956
      -0.57430727051718933 -0.4376585132008578 -0.47002873145632446
      0.13929438779718581 0.34294833703306188 0.40009705600977552
      0.13692500189530191 -0.22823329026271871 -0.24446819767968192
      0.40765611101592697 -0.47295029209483619 0.21857026197700641
      -1.3368915780813697 0.54498188879402099 -0.49310972996728286
      -0.55983598130374668 -0.26912214359099357 -0.95212915773404661
      -0.30898088974797483 -0.61862002959562334 0.24794057626366708
      -0.2330024671992981 -0.022099417608842212 -0.87606459410248383
      -0.2705384370531419 0.50414678588312689 -0.66091057501330586
      -0.26187928806839766 0.06922162814432832 -0.41118450174962434
      0.23804622899806785 -0.67528423246883462 0.34710187841500145
      0.3078777809124626 0.26911034960303881 1.142228438133057
      -0.46740218800826366 -0.70397715170003905 -0.36660092407361244
      0.28388054096219645 0.75087893898529345 0.51375308863126978
      -0.055595955054017238 -0.32037015114432194 -0.26083499920950232
      0.61302780310948324 -0.61908349890958314 0.63337039131959583
      0.54051388498568109 0.33782507941125278 0.14368796603623613
      -0.11180205566806134 0.52967022428453969 0.13817357738026564
      0.52163224102329797 0.52656001116062356 -0.44895728261635587
      0.52605427969303054 0.59337804746601741 -0.65165241764520476
      0.66255823643779599 0.25170863984743824 0.46130441210616496
      0.40535734454977063 -0.51435426567134157 -0.27527785939231514
      -0.39766328245039362 0.26590342729972022 0.12586080918446668
      0.3540137361421673 -0.023752924277455092 -0.22454859027927448
      -0.1825858110827995 0.31866171951236277 -0.85485304101624116
      0.10280176759110238 -1.0078447994738802 0.82926371941043309
      -0.48210179188383462 -0.46112251505423479 -0.29834872954728975
      -1.0177384343533187 -0.42108313254530993 -0.51624489137089058
      0.26674740213732828 -0.086794473387534543 -0.020849614677013323
      -0.560617565674978 -0.17120878478641852 0.40806385463130196
      -0.56791940291535747 -0.14919571282268435 0.19424189886690307
      -0.42555970599427922 0.069667867895146729 -0.56518875064139551
      0.24295858485789751 0.53066077896718411 0.39004040993539385
      1.034411130145622 -0.48677077101500943 -0.6919520108299938
      -0.52843524128672859 0.32531896821957795 0.38002210505336637
      0.33905463845057016 -0.045843350528024164 -0.53466516078451409
      -0.1724071704708445 0.79741804838323105 -0.63498074604486454
      0.24700513437779603 0.46562398059463639 0.3041917953069096
      0.1172700062022763 -0.1428542014985065 0.67447637155106233
      0.1259390439249593 0.56639332502274609 0.58227706979057847
      -0.28867688298214356 0.62839849575372919 0.59580704992050104
      -1.1526579573628308 0.69985196259958171 0.21414684820791166
      0.53161644048181889 0.62534091182158325 -0.38728994602921957
      -0.074243146081992978 -0.097431057632988316 0.38010899298450024
      -0.067713239274485554 0.22483630438699814 -0.33858202157890654
      -0.35587351995078631 0.0063599653120042735 0.11376895463041294
      -1.0954179540500637 0.21404862045467515 -0.88800832327246604
      0.87812039767047589 -0.76961546362054456 -0.49849326857687942
      -0.35371963958286207 -0.98810092941736283 -0.41710795462153655
      -0.074417647303857484 0.083642168759974017 0.16634976534518206
      0.00060315460612064798 0.18483569088532883 -0.21160178354504372
      0.086619198423292479 -0.6488408475262849 -0.056416671998277886
      0.42960138229813882 -0.38887429860115613 0.0044925074395502527
      -0.18413183220880089 0.0063923675918390044 0.37656135063654589
      0.45147938513001834 0.96456736076808069 -0.2066805633604859
      -0.54045378092861973 -0.58928978893053263 0.28650992998940938
      0.23643875115179019 0.32545593126712175 -0.17057253744820183
      -0.53388949702421584 -0.40157801325371767 0.66800971697428568
      -0.48617011843695468 -0.20024222126070845 0.35710125604967041
      0.27699255922091348 0.15531199640142898 -0.13247727054587055
      0.66810389072757348 0.26939195738456173 0.5959549928876916
      0.63517380922783773 -0.17869825458626498 0.77509044703419738
      0.44157626141559281 -1.4283176023128197 0.56755217329167496
      0.16560853282321111 0.36794600151476442 0.70110546180607169
      -0.16856147466935062 0.053249283289226235 0.023718400148176087
      0.44858121222486325 -0.020086517715578695 0.10805257456552
      -0.46280370911551072 -0.35657897932209287 0.29427892916085302
      -0.22022132182165416 -0.77430430557729235 0.38863157524470515
      -0.98189965293017234 0.76925378653684195 -0.85097371969281566
      -0.41218206429268067 -0.51542577640989973 -0.81009317012622317
      -0.5188500950764493 0.047983196356212718 -0.08579214916735825
      0.12946752486161447 -0.021267522474400682 0.54139959853593156
      -0.32174003976785487 -0.15607371984827606 -0.85493389557278232
      0.023232250393593668 0.52323180496240307 -0.28444238797819577
      0.0083592965317095119 0.11001644633399615 -0.022807429023865802
      0.03990516219357236 0.42841635765953695 0.91390670901578364
      -0.14747440724115654 -0.41347691958378213 -0.69795844141242702
      0.39320189672776551 0.25245172176444908 0.3276042098593413
      -0.38739973569763664 -0.1978219778579208 -0.60038558306135925
      0.64590209876717564 -0.4853984108833691 -0.30461315282558948
      0.49666741118322089 0.20865664791934696 0.21267361182085434
      -0.067289514149182203 0.61416425988166923 0.55456382954849937
      0.73479467285313294 0.58323400389419322 -0.20537652327410616
      0.84275408600554458 0.43193872305846776 -1.2544133350635462
      0.43785684105566708 0.057908195115904955 0.17314365168769721
      0.51571228841625427 0.023298008612992208 0.075418934931227338
      -0.0078379294431174425 0.40787063236475057 0.036705354006523895
      0.11165941061153634 -0.28458827144129656 -0.16597041610199345
      0.5129238564499814 -0.32810714244922423 -0.31949046492534244
      0.50952045582552152 -0.90205911768509961 0.53494072517480029
      -0.64991949283557415 -0.18474403329252254 -0.73627186292143532
      -0.59364633955473667 -0.5377381320119673 -0.034868428146031721
      -0.37654407893173603 0.035619265838980223 -0.17927066717278067
      0.32181921042756473 -0.32405830624131632 -0.2824378850520588
      -1.026513811700152 -0.025502549502773642 0.50047556489885381
      -0.16345014250293441 0.060685856561182368 0.11722243565189648
      0.040525926675792932 -0.22441860453806775 0.32852811306873136
      0.79549353904436215 -0.39264685000025534 -0.43569990221490806
      -0.64044374794854841 0.69323018907940037 0.21667423684732937
      0.23628878140754328 -0.45057852885146626 0.094599378131010103
      -0.58157622061379066 0.64404712464934621 -0.47210908602844065
      -0.080214621192802024 0.71675317567672525 0.17647105347616948
      0.274879061330635 -0.077942409360645087 0.60022521851157806
      0.87511802709902442 0.8197472811666846 0.45373508772905191
      -0.23359642326668556 0.85349736111314478 0.55287975154845082
      -0.86443358916464619 0.29248378820862614 -0.043088345977823753
      0.030925728247943408 0.14752838850873437 0.091674448315128138
      0.14816393076947101 -0.083692723071881261 0.42958563762734625
      0.1715764291672722 0.27140337015167071 0.013469673623935094
      0.080709055822782497 0.52114940132972098 -0.042012785470552545
      -0.03823674218271033 0.52764415934922038 -0.57183757198338203
      0.43778541095298773 -0.52796133929015965 0.11381675867022485
      -0.73603127696852488 -0.36159883377992474 -0.45062915148691207
      -0.2973222262992975 -0.61147974925576321 -0.01148259795212082
      -0.24954521790141415 -0.001250016422951286 -0.3070368156903569
      -0.39030397159582447 -0.98909905928146291 -0.24599431528275462
      0.35924981584180404 -0.17401220817212298 0.094085331778990103
      -0.17978054901921953 -0.090043539738699399 -0.41522810383685166
      0.091547304150199585 0.6823653058169834 -0.63544013744248595
      -0.37779413658903849 -0.35966142871306128 0.9745792012419997
      0.20082756214148517 0.18243483036220171 -0.41471729464340223
      0.0079224977421503365 -0.31630309979217519 0.55146058515790886
      -0.24332063669749199 0.30637192777298389 0.53986911540732341
      0.27740133370847686 0.25240170102236681 -0.025428591499747421
      0.67422315105201513 0.95377316029243886 0.62694709417537997
      0.26894361718371729 -0.27685986428701698 0.76270560277178878
      0.73190915929542177 -0.49092636531553074 0.31688538399480293
      -0.21303802010049838 0.10535024798358771 -0.023293645160423166
      0.07288666110350546 0.36003031930232665 -0.29302949940865136
      0.53355942113436161 0.32996683231740837 0.42986052472924652
      0.29181411016177838 0.27795623630864053 0.27591003324992436
      0.42165695706066064 -0.031047133116642697 0.24756375578893058
      -0.068426722647799573 0.65238155235151363 -0.43326023973169947
      0.28200055709827099 -0.52049670099837064 -0.33174336079075295
      -0.3438033472879492 -0.52722482594289399 -0.59434606271892143
      -0.20307881364736516 -0.31180534477819621 -0.03890347412442579
      -0.25707959656772045 -0.41785512497414973 -0.9140947978786983
      -0.65040736095206941 0.12660238511337357 -0.23156204947022141
      0.25856651367155953 -0.4484260152888177 -0.025797460254447607
      -0.63944233962553532 -0.2100026286783292 0.34040779800261228
      -0.85789800546050488 -0.13780734922517815 -0.21876210425505999
      1.5298974052111842 0.1059644843038359 0.15648927503858417
      -0.12277464441842761 -0.34369568585024196 -0.10558647812061042
      0.65325853613773266 0.092747290722940079 0.57923523822183243
      0.61190231394125993 0.36711242498181129 0.051687274992592264
      0.10721610183091713 0.59516687120666822 0.92294002732666813
      0.36012692304649374 0.14300406211310981 -0.11326185821797352
      0.63867902015036859 0.73697192428655089 -0.15164593143530417
      0.37935244361235243 -0.25337691470314438 0.19595885527871651
      -0.09860628384388917 0.034039653865916994 0.64284603044004129
      -0.41884919188308101 0.62345100533983289 0.44000523967979271
      0.33106763499719249 0.46344304567447464 0.33319276912649531
      0.043580496919173053 0.72183604928899814 -0.056595413818399137
      -0.14335505769113333 0.093464073580121571 0.84449937528036934
      -0.25377944179683515 0.35523941471084242 -0.28381441802301227
      -0.50345898842754755 -0.22972717627367642 -0.58956048392718408
      -0.48507884494393427 -0.4354051300229218 -0.42173770969821595
      0.210990702186484 -0.21843958618170234 -0.33941169946214406
      -0.83651272577148661 -1.0527215017988316 -0.13998528735962643
      -0.028502452755393613 0.40993979605200803 -0.73223841204407203
      0.014819599270764533 -0.7996471151885054 -0.5143340737238844
      -0.15126650285281595 -0.75800760654026067 0.063316425072635199
      -0.21689113278651362 1.7529459663918465 -0.076781587774959692
      0.16045420937355973 0.22530505518048236 -0.36689220784083237
      -0.1717352008302972 0.81258473065341852 0.31306253055732042
      0.6729935112469092 0.87465770873063708 0.37333394660710334
      -0.10525657589408551 0.063487561516771415 0.34501314477761452
      0.94030249246233533 0.19158251046335084 0.030778713535765185
      0.011178585294821514 0.42796370145295926 0.64236298820516113
      0.18407210736030308 0.28528873278957934 -0.028116131796730434
      -0.005762578262325793 -0.21407676115055921 0.14522634544578839
      0.79926846367653381 -0.20998304990165392 0.55032735109939257
      0.47749242304754452 0.46532308965683017 0.49918134791773905
      0.24056033936460369 0.092668452409994731 0.89808044076913396
      -0.25666649172401307 -0.19878619110291609 0.11536200922477415
      0.90144645285046154 -0.16258597695289634 0.37563793222910619
      -0.25007463770961808 -0.65429004483073572 -0.14437682906610536
      -0.68666888033459006 -0.61301388117046884 -0.43626032675926824
      -0.45106066248078136 0.32168449175312258 -0.091969131960102576
      -0.36437803051836032 -0.63906789594666524 -1.2346597239927166
      -0.29684837535908531 -0.05612547203400018 0.45740223186500251
      -0.74170170948099479 0.066188949288044238 -0.69144448844065287
      -0.50778244150528495 -0.30965957989021287 -0.36867200463884797
      0.15064836414370097 -0.32826007485986725 1.3331740273005412
      -0.10269067797869363 -0.14967584994340302 0.43806584362055817
      -0.17426761121365425 -0.39559543453554802 0.81935676531023394
      0.48245646495865058 0.59255153919639725 0.96633462892529265
      0.26595040714423024 -0.2120774425306329 -0.082049095673469657
      0.20869758899000759 0.9804560593370335 0.089360116266117978
      0.092100313831705194 0.083445783780482494 0.087538857900548522
      0.65343077243508585 0.26750021581207711 0.12529310260941706
      0.22963986916604165 -0.24258806320542139 -0.27694148667670826
      0.34357167612925082 0.85099902410862449 0.25066410840660258
      0.26916521061227994 0.59945469766246628 0.44926917334389893
      0.38976171002580656 0.21898385883432234 0.14792329505981802
      1.078347805016735 -0.34696636745964771 -0.30139688104704121
      0.22954710290815084 1.0075737635755335 0.015327614689969944
      0.26790527593701069 -0.15873189447521854 -0.64901299886629282
      -0.081457575632211246 -0.88734600113538253 -0.85221158406571162
      -0.31052935457537567 -0.28491842567813647 0.21708550017961761
      -0.067246446465084653 -0.3673614575853944 -0.56332148904947621
      -1.0287131368162934 -0.34205907988159234 -0.20552045841541985
      0.46905060166133644 -0.72022309979525323 0.05958331349308589
      -0.20373221904017555 -0.43678431844434251 -0.096400627550438212
      -0.11225428082406883 0.16914426162683951 -0.46737594237166324
      1.1164795913557741 0.076572317976133286 -0.35308555281436849
      0.66836682295550309 -0.050002404241839833 -0.55644143526254175
      0.71055995841522324 0.54917717871768845 0.52399384617348588
      0.76643806813959225 -0.10752044949349827 -0.2350332104130495
      -0.029672112792104851 0.01816639471486969 1.0678869901276826
      0.076868376381331316 0.081727875123560514 0.11121332420100501
      -0.12499103880989318 0.59939670266910128 0.21766087298057568
      0.33403000035148517 0.30806988232829541 -0.58274671517493581
      -0.18567659386439453 0.31671225251118518 0.97269291827526883
      0.70371038546589426 -0.11336226959985871 0.71215730618074313
      0.069372081902501853 -0.047950504901105029 0.49657486620592545
      0.25248650747820311 1.1847316641311734 -0.24872039016139044
      -0.35124152486306059 0.12394758043112949 0.96497679487573906
      0.071952507704064153 -0.0008750496718229029 -0.046075641715564407
      -0.5229149678270909 -0.09199385279952621 -0.80830560068450519
      -1.0557081137816557 -0.093577688713596605 -0.14927363109170597
      -0.15524536836060221 -0.13818222698397661 -0.58647913896030646
      -0.4815197112936288 -0.72464936500368016 -0.43569795970808739
      -0.37817605367894941 0.52177570040953425 -0.58825318424712514
      0.14703810767231257 0.30240266360664353 -0.39937315999692252
      0.22469105335141809 -0.22981913708497798 0.094946461826621184
      -0.45108622860622083 0.88523030537633229 0.31327950114786918
      -0.33838164641478696 0.76195948055570517 -0.0029914045950815149
      -0.69667963089989782 0.65491231573123965 0.59371099906588731
      0.19466537219272187 0.542764906371072 -0.45073061825883909
      -0.11365129020846883 0.054438860970897673 -0.069177711756397933
      1.4692241755527988 -0.13589895157850734 -0.15035322332473508
      0.14072118545399606 -0.16554267880805493 0.35504556828584494
      0.25000359034818792 0.36234801836082553 0.1538505154903653
      -0.72629087360094502 -0.30624986156413947 0.26183331695341172
      1.2312725182759725 0.81070166194227433 -0.17173494923228827
      0.61299726508043861 -0.18861752694762696 -0.4139159234435798
      0.95979661776347569 0.5038293348736097 1.4095258351088427
      -0.069244656258601836 -0.49303802630025267 -0.31067222018418122
      0.87633613674482969 0.10637843778192488 -0.34797127877184886
      -0.041225340166794917 -0.36635799561745197 -0.014070789250021497
      -0.8322462157397289 -0.88480301627083102 -0.12289766214131444
      0.032874743516013528 -0.48792135376554491 -0.43597927206539833
      -0.67059977157279438 -0.49508339813895152 -0.47868405571766331
      -0.44253444462500052 -0.44951049951317729 0.49528537977370968
      -0.34618508131928272 0.19372296800935018 0.32165768313613841
      -0.48930719041563198 0.56614238038830278 -0.45155009656203571
      -0.12342959156011545 -0.50774514516024194 0.72216016712614928
      0.3466094530570803 0.071718909624834057 0.48713957529683144
      0.18652809861755626 -0.5697535092138637 0.55527715572949787
      0.52648019943884727 -0.11643756308725091 0.37866708547878203
      -0.8116803660175067 0.089762593889083947 -0.10707693388798402
      -0.15721394246395592 1.7637462784399569 -0.28478861047919446
      -0.40593673952636727 0.42500061140484663 -0.3714831290718556
      0.25709111350675473 0.17077299654725916 0.26823262905486617
      0.14505729955126326 -0.64120529826825623 -0.36662757322411749
      0.31904414638361178 1.4108254393203772 0.60784482611028956
      -0.010523384542514187 0.37240370465042844 -0.097402841339517404
      -0.48707302769931288 1.1247611728265126 0.59529873233177777
      1.4575847753001274 0.0054707101550849555 -0.44419981541427711
      -0.60603203636986647 0.97972091297620278 -0.011845623172276363
      -0.35497943886633504 -0.056973586108615859 -0.13245484655848302
      0.056552882118212827 -0.79944174906161958 -0.4915988056113092
      -0.28843914457186604 0.09574980960852246 -0.54305410399316001
      -0.66395998981285131 -0.64407425885787506 -0.46253222158722285
      -0.43215584166890086 -0.44761663815151675 -0.46082080785063373
      0.4123533345672154 -0.18991422279385703 0.22745080492133116
      0.10558001423067231 -0.57811859634600504 0.87705066847237589
      -0.50375497266395763 -0.11293808720376024 -0.63892273658670695
      0.44970682514291366 0.038436096247845671 0.45820009783737209
      0.11229707875329532 0.30726834248441587 -0.47814299055534815
      0.24506763583406249 0.40146081018347551 -0.14199321878045462
      0.42044763336948909 -1.0768620432331879 0.2438586706726549
      -0.034311572092831276 -0.35832398990460385 1.5919720634455983
      -0.28110374429818968 -0.52333227343162547 0.72002869028065708
      -0.63570488119211943 0.14991503745707474 -0.0451432792149635
      -0.068728157473906204 0.13075415249220343 -0.37807608827648403
      -0.41299787459121312 0.4562470439491732 1.2624930024544776
      0.35034484138713795 0.073787215278994178 0.14923888114684286
      0.034105316446296614 -0.5059549150966014 0.99880638555505996
      0.55163107526460653 1.2626166476722944 -0.29002080661854734
      -0.27873652481157735 -0.65156820436117746 0.92837238799971322
      0.040937066217617932 -0.11119681157373638 0.0002823680247237497
      0.023330675428725651 0.1241317310466053 -0.68558252007632436
      -0.18115284425601302 -0.53764146750347086 0.15012153493082833
      -0.52915929574823861 -0.66068573778136697 -0.4094615109816549
      -0.48233232022174904 -0.45803573187050206 -0.34113960396629983
      -0.63262181917119931 0.28012361945009367 -0.34208268195358332
      0.11015243156961865 -0.045180270884449487 -0.66699475071913605
      0.78749663046807972 -0.28731264930582223 0.025851383543794404
      -0.97210266913331145 0.44727894963313669 -0.096712140992962742
      0.59272549048950829 -0.12824283751560492 0.21144405308413716
      -0.30676026731296901 -0.05032320784957834 0.26982363925933012
      -0.16475185272547849 0.51245713850593766 -1.293978446085035
      0.25964154938862521 0.32102491627897645 -0.1000988138548464
      1.1459767713370872 -0.063899130606429558 -0.48498616900522601
      0.85055253822223198 -0.59948730141088025 0.20287445363052456
      -0.17133787642978235 -0.35033773604201013 0.17090445195318216
      -0.22404247290874107 -0.35752781715016474 0.70907636495482851
      0.97608869096205453 0.1342487334411254 0.17712814728792417
      -0.13160565959306975 -0.15407196321253788 -0.4912001314117182
      0.89854851232763233 0.56982090327380963 1.1329365759946561
      -0.6494242930015024 -0.18884023842606681 -0.55530977553971528
      0.80730005834895502 0.23610433155383187 -0.073255288384455469
      0.098246294368613249 0.18353740422257994 0.16683765424884078
      -0.56219253926208257 0.17689786113711395 -0.71869414429533784
      0.17274962772151783 -0.90999268674074507 -0.43053108486047514
      -0.37903813456098107 -0.49105217102994342 -0.56093888356482835
      -0.22187912541980501 -0.70827300814640937 0.23460389698967862
      -0.70711469552079598 0.092088317697298416 -0.092108035251868239
      -0.57147561069365627 0.45995483369848622 0.031936379772937631
      0.22162260993836519 -1.1051801765510549 0.53692601870593781
      0.067675016729270787 0.44534961883663821 -0.24297982607796992
      0.17580856071207895 0.0048446819600315412 -0.37057188007769587
      0.21457248616480984 -0.23630955691853586 0.63796933770657527
      -1.1095909651023539 0.29231844789039801 0.64283880069755805
      0.18136626733242844 0.70379041231538442 0.26445230679268122
      -0.32039477710666203 0.82227320451767905 -0.46667155753639655
      0.22535086731534151 -0.27390757850218439 -0.62901749088853254
      0.20449494662044834 -0.2133087389489419 -0.34667305304326451
      0.98183220692657092 0.66568969100168307 0.36863819490812422
      0.19816373621449404 -0.21915165554967536 -0.43660388391243032
      -0.34617120748583402 0.76966197249230928 0.60565440639423906
      1.1782010924112938 -0.73371977734778293 -0.15122235093704312
      -0.30564536351904714 0.94816300884782767 0.33432912275752141
      -0.16033555527592472 0.09172943134253235 0.38440720649301413
      0.17769196536089887 -0.61758331400147271 0.38794614127806576
      -0.67266192224092369 0.083483797439732693 -1.425734786261335
      -0.27636149872150756 -0.51644454272166418 -0.45801376249615144
      -0.53496405905445144 -0.23343639897714291 -0.87300170660969989
      0.24344005174742134 -0.93774938293923937 0.15492015007998652
      -0.055914701087898769 -0.38837132631318683 0.026975730807376093
      0.38787176840066051 0.45294919233934616 -0.89014746649675636
      0.47769474272589707 0.21046941657538654 0.29755215582645267
      -0.2078056298302573 0.20579982702829799 0.29057819888954406
      -0.68122823959108691 0.18960572203005813 -0.19213941725029393
      0.64734507049883339 -0.76015373720745616 0.27904973000153332
      1.0067160089023828 0.40410532548572542 0.56852202568582588
      0.55407594200241528 -0.018709732584943236 0.61406277198259362
      -0.65046439536683487 0.089485746679290323 -0.38311622456985134
      -0.71042088592128017 0.33045871655623282 -0.11946763626674137
      -0.32757357306209994 1.1730226587415387 0.3987315239157373
      0.62201270422037402 0.21755455210755906 -0.24372323210641639
      -0.6583081428427584 -0.10289168014882297 0.56929577070618465
      0.59839948523021425 1.0340369017761268 -0.45377616196124487
      -0.25849927852179655 -0.2030201520572206 1.2637263044893412
      0.3107108964270664 -0.04272408255152458 -0.079313925702389126
      0.51778304598073044 0.23254533598972596 -0.90752393496356887
      0.54457356079272157 -0.55681503710618263 0.043231525262783926
      -1.5533038745851362 -0.24663912729223003 -0.70176232169989461
      -0.49559867766565918 -0.39770742547841803 -0.1960633619902212
      -0.9089134495308131 0.20520909317499367 -0.79173364718898076
      0.191656249619615 -0.10331518697158984 -0.5002313055940153
      -0.34301651329769017 0.51700479208925543 0.63891540678477976
      -0.74690568613609343 0.51655456026654167 0.08869286623366493
      0.43624314271465947 -0.19938688336368682 0.13929613531420729
      0.41506723401887846 -0.84525444100863723 0.1195885981106206
      -0.29532464766851624 0.46411700584567012 -0.53665994215304302
      0.085998720417495761 1.3029542218119052 0.4309027110348343
      0.54624801332457351 0.55546202686944812 0.13645666170224133
      0.58262758455568764 -1.0010618799402156 0.023010555697542321
      -0.39079620660981662 -0.56368202767509712 0.50547934696641139
      0.029927653520169253 -0.44003298615219744 0.96939882865759908
      0.17834830700850771 0.71688303586970969 0.22655696236346906
      -0.20086369346121929 -0.66233151424503889 0.075752429365245774
      0.36640944047208351 0.49942073219747207 0.87770987554027546
      -0.11949569547427583 -0.37374967837008999 -0.20910059632512817
      1.5471541618053108 0.24446002513018597 0.42153289127166077
      -0.27036791550273315 0.46722448842130937 0.21860110986408124
      -1.0051607060552743 0.41231233598943617 -0.44392277367058458
      0.17424795208075899 -1.3635671576072066 -0.26385438322244892
      -0.68323078231708112 -0.46749821580614448 -0.28794694871387988
      -0.027881636897620098 -0.81856891230492301 0.13049653761332314
      -0.57813640013090373 0.27858501240167743 -0.042871387996080784
      -0.62768312825481454 -0.41829249970624816 0.33184503098470625
      0.54439181943212844 -0.57664498769199002 0.67238056869388341
      -0.049329583701378632 0.37477795805843506 -0.14560443695976893
      -0.19629842382350393 0.33921901624834816 -0.70248816703600481
      0.057220045207074133 -0.27385198956906598 0.029811785770943545
      -0.31644416767388184 -0.13689766033591744 1.5266399074113244
      0.22436918673006037 0.61109013983315785 0.20403433335862753
      0.037531830009182317 0.65462297610839415 -1.1254198418076073
      0.053389927732830411 -0.35404829741615945 -0.27378416326850108
      0.56270202114536172 0.0021762997513691987 -0.46556259231125519
      0.57185870484559465 0.037913333909463498 0.57662730959506125
      0.13934878687780666 -0.28297766920886508 -0.50007244674706364
      0.16606748914600636 0.25065542770259436 0.13439888535375122
      0.97230262133812262 0.014389537356852554 -0.60134868840684863
      -0.07349111290106683 1.5732955354325373 0.26532750339930505
      0.65624400503686864 -0.40528438299168906 0.53103936495847104
      0.26769812672956006 -1.0636976891928827 0.15459091700184774
      -0.4377464115126336 0.34119946802181511 -1.0223005639364826
      -0.55185307805059058 -0.55129557533534523 -0.28716501316116005
      -0.18016746716772236 0.071678582154479795 -0.63198279042044903
      0.17499229520704801 -0.62241808233200924 0.34133509975351867
      -0.0075009667805690603 -0.47007399913791015 -0.10305049795820767
      -0.19615763232814032 0.27026357357850078 -0.18139402678832214
      0.65158726811362999 -0.1292963442228113 0.20162255051336359
      -0.30193484639079021 -0.31959515379226616 0.029545495875490758
      -0.53267287429625798 -0.60148463671128571 0.57839121955540373
      0.79618114286763708 -0.2734214953136142 0.13902351851183914
      0.28752177157175929 -0.37375613743304409 -0.030873871894556839
      0.66107804814201632 0.20206783863511135 -0.31062480852264363
      0.71447972499572043 0.14717155653515479 -0.2042420897724708
      0.49274519410454909 -0.14977786230767762 0.29383666571712691
      0.37424236426899893 -0.47718374354259824 -0.31524830097555506
      -0.51721217284275134 0.23148377834119949 0.3551390599851994
      0.26552309472643898 -0.12595123160287494 -0.23652908974901288
      0.10288116850294295 0.49340189896854825 -0.28008324138646196
      0.33218942132546464 -1.1917629691779412 0.23224383396279566
      -0.64982126209602953 -0.44774294017632199 -0.65436084262381511
      -1.065532195056162 -0.17727586582510504 -0.28394326510892665
      0.0078623153524251914 -0.094150363091856495 -0.12811411332974049
      -0.90069558338364686 -0.42845533160057936 0.54382104917629581
      -0.81843775494994842 -0.35187174744493549 -0.066704175566664206
      -0.61113155821201148 0.099105351810799797 -0.51784147340156439
      0.14621697025584615 0.079710026114459084 0.18799697322030737
      1.0956385531095776 -0.28118821416266682 -0.58567620596539494
      -0.25075004812742213 -0.099135730916036224 0.54572895102184826
      0.51059829711152183 -0.1316336139544079 -0.061552914477131196
      -0.22090455600077424 0.52498150732008986 -0.25551898138689771
      0.64187940232184904 0.78473174244057198 0.12536498952960626
      0.09255823427796632 0.14026748098519429 0.10828179775461802
      0.14973029121890394 0.63250202203737127 0.29133023156179211
      -0.4626567786080924 0.61085221947967983 0.21738572123419098
      -0.32545716204363828 0.486123060717501 -0.00063599083785634487
      0.32342127160117767 0.45625684370155511 -0.51326219388064154
      -0.29106972767539291 -0.60863454845630738 0.20093810646181845
      0.23298070368255308 0.27431895209808072 -0.17977617512224858
      -0.1858771030527849 -0.20442829904407037 0.36864585731221705
      -0.53574572392057351 0.13794288730893764 -1.01877298477164
      0.43432133111493365 -0.68552575001474558 -0.21049156408395586
      -0.49941690803535815 -1.1545089970430349 -0.20764225405955802
      -0.56758189252375735 0.19022810257618236 -0.0025527018694424886
      -0.03364930685352957 -0.80039186893473513 -0.337429428263405
      0.36384788655182482 -0.89415267389778053 -0.27703484049868726
      -0.023257385857854349 -0.55420505423103106 0.092543025664872117
      -0.62335896322499484 0.44700388981055378 0.23004558534825004
      0.25720885458326226 0.97521498032325582 -0.45291793342682329
      -0.78466797626065221 -0.29235461510816835 0.13651884055810454
      0.36519248242700064 0.60575173499092216 -0.14879915183297965
      -0.35198175648136243 -0.21796821139353975 0.75878506790574296
      -0.24502496153254516 0.65949600003163167 0.8659152307655823
      0.41569221602889667 -0.029859332856567774 -0.038390634807878174
      0.32828185786050668 0.17397679201187363 0.66089939979667534
      0.40746807596412854 -0.47363819048209699 0.55579298601186489
      0.36266150173424655 -0.77462113393097753 0.53525031565149372
      0.078465815317648721 0.45363295625571476 0.53521376257455433
      -0.64093205221917016 -0.15375342402396258 -0.44332809903563902
      0.30633044692761513 -0.054338731306558419 0.30466943538362551
      -0.35261080234703202 -0.23029762104842155 -0.10813274230416949
      0.066216582344073113 -0.82767069543563787 0.02387530905484473
      -0.75798348598318754 0.63130122271303746 -0.62638550068066823
      -0.14700439535119614 -0.37430413981959698 -1.2704424548122617
      -0.31359613958904325 -0.46197273429712854 0.086742921746117974
      0.16817685903108823 -0.042416068683738394 -0.48218476957500389
      -0.18848172015170728 0.23400245970011435 -0.91241272029714182
      -0.20184562119942656 0.17024585761089334 -0.42719153045908714
      -0.033952498996257442 -0.53483761889669412 0.42103181828190145
      0.29922743179339212 0.43629106147756674 0.73403615906913067
      -0.3956506543914291 -0.78557630628049069 -0.55806344422069964
      0.30978193302093071 0.004717732055420509 0.4656002695933083
      0.015721014721629682 -0.44806230855940637 -0.18478818366912203
      0.79846341509805974 -0.33457632132082721 0.22693998313730118
      0.72528413033092098 0.434303058787605 0.0076538826833451598
      -0.056126156166577075 0.53190639429194919 0.21767067558694003
      0.62430263412771192 0.47982781500082311 -0.33314570371853897
      0.65996320251864071 0.35636540478331225 -1.2716362442456239
      0.58153081364095249 0.082835979380905533 0.47739297450886004
      0.70023223847565852 -0.44668077863271832 0.02656239944391222
      -0.14466010245147479 0.43111981403428867 -0.20771641121591927
      0.19555646060476062 -0.52946509852144552 -0.48218916124592826
      0.088278282505909911 -0.17055447512220137 -0.9728195218948027
      0.10154606121711962 -0.79766634755692356 0.77754297021376373
      -0.81732725359008518 -0.2743243109311877 -0.3425110203480039
      -1.1705144653892741 -0.30643624561331451 -0.11009829514382578
      -0.069610201486533255 0.40606389501500534 -0.021007131564030012
      0.21983668105084844 -0.22487959616047148 -0.012968095910966603
      -0.97959979153816701 -0.1175181689312519 0.39641042924964948
      -0.31592527491810735 -0.017694157359041784 -0.20087211569015828
      0.19395403187972621 0.18005750294023637 0.48851397486902121
      0.59997342679147136 -0.099970832917381791 -0.52376121294975597
      -0.63068160933291006 0.43950706131333189 -0.064393401223056923
      0.37742437014046071 0.04676076780278323 -0.30434138636689378
      -0.3695124991350654 0.67018871598155894 -0.25465595422651083
      -0.25493798045785832 0.61135398817773901 0.35435808425870119
      0.085666923524134714 -0.0165555522360675 0.6817886361464891
      0.37471901635987342 0.59038866640933152 0.50992162275288089
      -0.20976337864819752 0.77169347231299268 0.11372749069407435
      -1.3950796801290075 0.48701236324433372 -0.028407541483708987
      0.12205229006680507 0.64131080298774257 -0.13494593987343748
      0.16622663087162304 0.030278264843890103 0.4057434568712367
      -0.075920434917207416 0.10587790649163141 -0.56321857871566383
      -0.52184364447815268 0.30706739602333843 -0.23385530871419796
      -0.67287157103855177 0.48224212695795798 -0.88998665295570811
      0.68255946674096579 -0.82506170939499823 -0.29109962846394488
      -0.44156967818813914 -0.94124548376416772 -0.40554475457492462
      0.1041391722507195 -0.19324164846878966 0.41674122778484457
      -0.00015061735285292597 0.46929353865823598 -0.37155276647049706
      -0.25719450783585557 -1.0008225687526009 -0.015552681106682774
      0.4792885609545246 -0.17990114363994611 0.038481839282684262
      0.0087245306233602431 0.022026507668967642 -0.045373576124482562
      0.40147856966840273 0.70736621774497965 -0.10076618250583846
      -0.25330216743752543 -0.63832734226637899 0.57979043270855224
      0.058078472405004487 0.2668009170641466 -0.12414370859971226
      0.096056523600362501 -0.52512749662472302 0.65901700905273075
      -0.3251436708376611 -0.34357041786477832 0.7991336359791773
      0.22657398649944618 0.24997078051898861 -0.011053744757415107
      0.75311795571654461 0.70284043902281013 0.71163194034293387
      0.43103607810435735 -0.3314650614566359 0.83341651030629127
      0.030824697878682771 -1.0495003785356571 0.31359763891322939
      -0.1945639301418246 -0.092350367660946425 0.3846916493603626
      0.17434602597926818 0.13749636860404418 0.052609535587555031
      0.33874548850994823 0.045933353415562324 0.16215686926886991
      -0.27494045809595197 -0.24005822251883038 0.4125243733534476
      -0.0048699730622463492 -0.20437825388970024 0.66796017027007437
      -0.753736970145925 0.46831733012076088 -0.66502344146307213
      -0.095549519727034002 -0.72193610625739413 -0.64994701190213799
      -0.43241230726420582 0.089203604585953639 -0.4046189379096039
      0.22918939703122074 -0.13731030165269101 0.082119574593254585
      -0.39411706061986812 -0.46521283178627632 -1.0526987497259201
      -0.092635437890883257 0.47687892477020744 -0.070334500345934192
      0.053838434528847144 -0.082535037833875141 0.0080428942219721959
      -0.2927366008908211 0.31347819754676781 0.76254160200604459
      -0.38179361333485695 -0.2267384893674349 -0.50944989736457913
      0.92402519410844475 0.10597977932154819 0.14228143982237396
      -0.24559154962014279 0.3358268633214983 -0.44081045211421727
      0.70121550020153722 -0.34004555092520145 0.033570962714154252
      1.0340132080165378 0.19642803269551026 0.33018965686376367
      -0.026099647158176649 0.7176111131270706 0.95319413952330301
      0.83490097491478499 0.28564623090071423 -0.32884730651642796
      0.75943338953685047 0.10352435674806894 -0.61999422370584967
      0.1588576697936312 -0.28732094730722085 -0.067718159901034192
      0.13542067521609572 0.25567948500531518 0.10785459230026175
      -0.10100535810531791 0.4640168082181797 0.26641982877197107
      0.30489828329007279 0.016338095600898116 0.085563043836302907
      0.33270659583122425 0.44737744595800488 0.068858645594045004
      0.41823565117572697 -0.27482036122859671 0.46188155009604798
      -0.66242685447356309 0.12162365283056964 -0.79004635394199119
      -0.37418285275755619 -0.40884201489841915 -0.19640026234771346
      -0.57581405440388289 0.10459657174372654 -0.31224835578464655
      -0.29461200885577415 -0.38423893426646483 -0.55646508637576375
      -0.9716624211888969 -0.29000559484995231 0.30974478478524947
      -0.15627921376746523 0.076845048516675479 -0.38546237153474439
      -0.2130922718266077 -0.49017221094298952 0.2202569615432175
      0.73329732178399798 -0.65604790773400279 -0.19090644094911791
      -0.31085039955282184 1.1464519144378535 0.10428460198537477
      0.16026079310480593 -0.34265960950190943 0.17499251758440623
      -0.18293820627527824 0.63790777072469707 -0.090829522334189394
      0.39200385583588016 0.76410094921865968 0.3533442398268728
      0.19591954072249929 -0.052865834438593461 0.63214205233635135
      0.89165061025339265 0.62769169157697646 0.15217090561375571
      -0.22840845106768401 0.70983694057610747 0.1631189830834005
      -0.29502538308451265 0.10493611208626297 -0.29757542523233893
      0.091689295034423871 0.020539457096485685 0.16923566909392973
      0.25968073767321426 -0.37456852714514022 0.56142683557675843
      0.38643037628100702 0.41308790643807386 0.097008601249182966
      0.24594237560312049 0.12999328216034936 0.87592658821908631
      0.00011689526227387713 -0.11131169395731454 0.060362979150779032
      0.71782256396245869 -0.57400580706425774 0.22239948976704244
      -0.55847622767725014 -0.32462639510412261 -0.30941498686061625
      -0.50956702763016881 -0.68972962705799179 -0.037407167515837315
      -0.50909892613562913 -0.34197269317235313 -0.36623397130215424
      -0.55469799371034134 -0.87354198675569472 -0.60736719317995436
      0.099871650694017003 -0.11209442970326808 0.24461442902437786
      -0.61516945700983616 -0.23663795172520016 -0.64951819843886627
      -0.030518294317869222 0.29830148577269133 -0.82087051001431188
      -0.04302499543762571 -0.26617472086539046 1.6655856486294116
      0.00074666275240494677 0.18172978937251985 -0.1213415872855039
      -0.11259766598117921 -0.10610882026450504 0.66109399341837061
      0.23129500183846594 0.56517698357119139 0.69331678538183061
      0.42643279979623366 -0.023624895149636452 -0.0048369059516467508
      0.42850693508693166 0.79777460362477348 0.28288829479885652
      -0.016575869808128856 0.046729869227207455 0.6032554273999734
      -0.048330441915339896 0.070358483945560032 0.17454190231265251
      -0.26255607007192044 0.11722885726461686 -0.11497415652876082
      0.10957361785855133 0.59152872062285189 -0.46519232936601335
      0.62152859687513151 0.43369196889576006 0.30852027607740945
      0.15411422451403242 0.29136296002550088 0.045960087790213898
      1.0378894362728723 -0.059712482722462289 -0.57590486436697941
      -0.017055467576241927 0.8104721975852468 -0.35165435666757
      0.30340126380271182 -0.24281678677255603 -0.43836014763777159
      -0.1683759820232745 -0.62905504938774659 -0.63953008619935658
      -0.18504275541569554 -0.62495966615080079 -0.16155098383894009
      -0.39269894671576588 -0.454653512000049 -0.77943307975759724
      -0.9116668285760261 -0.076550375159423617 0.035432508072658138
      0.39295863055521318 -0.90127773319296189 -0.10475126189857387
      -0.62658718815610426 -0.32185959631099281 -0.33509825449780606
      -0.56910623687036022 0.13511655957238586 -0.21104501207572746
      1.7508631605452316 -0.13464435969604976 0.094045719239668632
      0.180425568091161 -0.12186836355347351 -0.25730714074180328
      0.75892255997834779 0.42692938451567675 0.66147671406469999
      0.94834207850998786 0.41220698581640236 -0.19970997436305996
      0.054036306991682444 0.017692975266945826 0.75537022598373893
      0.080037269825526475 -0.14122030974826141 0.20711107344054611
      0.30023322703018451 -0.19841260085850496 0.39403395161110716
      0.12189809918903487 -0.067982748828693984 -0.11775677875728348
      -0.25514972593704055 0.18629448167594825 0.76565499506173473
      -0.13815500242091405 0.52827529511482496 0.41295513029652908
      0.36668958191292772 0.14679357354736738 0.22550280686716384
      0.21127351813396217 1.0394229841578657 -0.2408478946033118
      -0.51726100007455567 -0.14990313738867159 0.75916226610726623
      -0.14866580315139721 0.40380819918295824 -0.14726151770030516
      -0.49063417771126855 -0.082679247643638099 -0.79833743842981486
      -0.62208523316272835 -0.082098390325109072 -0.58662124455108244
      -0.15978538647876389 -0.25037311721095634 -0.41296960389990039
      -0.64620144060797891 -1.0246104813438812 -0.2334128079827118
      -0.050335670487419291 0.39596483589801368 -0.96059442650790472
      0.010441451447060573 -0.38798130962131155 -0.39305045043514902
      -0.597316521379058 -0.13349766144627334 0.21712550562937091
      -0.3380077740825318 1.3082728098247289 -0.1214982910069313
      -0.14974014247696721 0.38174370674436925 -0.0072617592333301629
      -0.38224744599429239 0.77035094297959017 0.5753339068864568
      0.7129639617872231 1.0665732458383821 0.24047784235272732
      -0.25500701651785224 0.072149889657964844 -0.25775616875286
      0.79315565998268422 -0.080078891838049102 0.03448559383557092
      0.24007246043062763 -0.038468861625397366 -0.15139359452321932
      0.43158564683745421 0.078416586348645428 0.2410536637681342
      -0.42667375498509613 -0.27625411848859438 0.27893894575170547
      0.86464984793374289 0.34995345000964212 0.22398783592027416
      0.35585135812353591 0.29771961577756756 -0.028983840478639129
      0.20345674803158478 0.26952828695166753 1.0624605124755171
      -0.25812203952619428 -0.48723396292023219 0.017752632740938468
      0.85942038349606731 0.11261477629056568 0.33262273709876017
      -0.005286860301750124 -0.37974094631591959 -0.046903671611098971
      -1.0307699982412084 -0.74926255633354666 0.048574660759339465
      -0.349629354096051 -0.28044367815924992 -0.22639844927789476
      -0.37261216215252707 -0.54244989755095518 -0.73361425076394227
      -0.31386117496450439 -0.19049126360216864 0.44927804087363543
      -0.87828758301691934 0.050464411869176162 0.030186938636772617
      -0.38305044096325175 -0.33902198617295221 0.0059421456884181179
      0.14117674582339276 -0.58190902251181409 1.0379702966257009
      0.094756510923946977 -0.24568872287723742 0.48677413747097081
      0.024720407961149323 -0.42007017237300609 0.64551556533681698
      0.59656436702988602 0.59367392134589769 0.79370038519934827
      -0.2128079528191312 -0.13890654480499387 0.33410487837845726
      -0.35692155144254173 0.86170255484028901 -0.15872018552579534
      0.14768699645451627 0.20826246857408354 -0.1473451261320429
      -0.041165465016772908 0.32102242708059997 0.29633362020455545
      0.36256209380314269 -0.6795935097014365 -0.16009543779834645
      0.17306470388343792 1.0808490693932642 0.67002494864893802
      -0.035562170341434898 0.3158679549794905 -0.050065941000145248
      -0.34748803106308274 0.41961713615918167 0.38921300287391036
      1.1695230380045023 -0.17971498361362398 -0.55574425627442137
      0.011451627211215818 0.88355226387345054 0.20204957973614882
      0.051278769292109581 0.028583273140689907 -0.22546466738143395
      -0.041382554998559543 -0.91082876898259679 -0.9198081512489733
      0.18175047035476904 -0.18290853868428597 -0.56643918211968125
      -0.23571072024738637 -0.4918182594540696 -0.44444567768278836
      -0.42338047651362415 -0.48683576953508911 -0.29917151585027446
      0.46205109077443052 -0.70497233169539608 0.20255690092632303
      0.31382194838978594 -0.33145708971000709 0.081035505569822058
      -0.18936514769235735 -0.031007328825555756 -0.66635975279458404
      0.80531995217829577 0.33877861527826741 -0.21362198403574961
      0.48735413096628527 0.036376910905990489 -0.48087233321509631
      0.62174400842308009 0.55060678135665353 0.1788900389956595
      0.51490514147238986 -0.68970178127697046 0.19806120694281409
      0.42451150264555576 -0.35313590089927127 1.1849121850136226
      -0.43361454390701282 -0.055296655377806883 0.19036125910006629
      -0.16931548428879373 -0.16816899502434526 0.27470579214208285
      0.36389041887049034 0.22316281778490973 -0.64321191946053613
      -0.26697263751225558 0.14644784616265827 1.4346039272819404
      0.64278789145388804 -0.0053997575231343031 0.15771583095672259
      -0.1733075109053103 -0.57351171096607412 0.86834530030091928
      0.69381109323478651 1.4463982504220578 -0.17526526656170341
      -0.64691144030570669 -0.29777469016591951 0.8252159367423203
      0.12591714719084976 -0.36739817105647143 -0.09823693676540747
      -0.079900280507192695 0.09501928717805487 -0.78838690292609026
      -0.81113951227079562 0.10498466992953094 -0.026323098804877997
      -0.67611973488196975 -0.50779042751517456 -0.54818495409761103
      -0.46241784713874629 -0.33021059084703835 -0.48859526842609818
      -0.44328926882851677 0.47387477665400279 -0.47139417105307929
      0.20047011502743542 0.24164672714729282 -0.4402642659905705
      0.48596178522494821 -0.38259855617076549 -0.25961810421855236
      -0.709811077324221 0.65853146206728685 0.31819346763909928
      0.14820699070083407 0.17695612190319307 0.21304731349245074
      -0.29021820399680504 0.509136017651727 0.39344013327650046
      -0.077395063487182988 0.43145914264779089 -1.0298573217076661
      0.46276590618406588 0.20314517707926399 -0.44132820910462661
      1.3770448679551599 -0.51129446115193222 -0.24794692523673798
      0.40687675312066873 -0.47428584153419989 -0.21469113949243471
      0.10524048257711911 0.2668008258488237 0.1965748188560407
      -0.55266678591683749 -0.25588422263603905 0.16928255807321077
      1.5206940441741941 0.38210785154280713 0.1374942738735736
      -0.029874970145442912 0.033653272716995523 -0.80139091859694511
      1.0225959181945066 0.80775297676536517 1.4066891123971108
      -0.11872715634177253 -0.51247025962068171 -0.58658392625393907
      0.9054627183808267 0.016066742849679731 -0.46467544247695974
      -0.14164619830793354 0.11536345582257383 0.23528161359796179
      -0.61779790010253166 -0.45182375799964886 -0.043150636687535666
      0.12266328336901812 -0.66330744962905897 -0.64807970231320244
      -0.55922166659304218 -0.46140193371198995 -0.4758123413950146
      -0.39968494742913291 -0.59755876100265481 0.37832440109401461
      -0.39008384623030395 0.11711772413233115 0.098812736370103252
      -0.55025242174171085 0.82755036852020625 -0.43436870380117149
      -0.20606862209599444 -0.91762447141487746 0.30731261470929833
      -0.0051367673811611716 0.51533041202789565 -0.086582693845695266
      0.3658405068079586 -0.17377851869154515 0.19122275026398733
      0.24857491026033202 -0.0070310745228209046 0.53057060037342707
      -1.2202480790883197 0.53301017866730926 0.13998831936241815
      -0.59194026160389057 1.2430838932122605 -0.45992683228405051
      -0.2654053972792596 0.59249681449469116 -0.78664877399339184
      -0.38245833036586147 -0.16962397181925429 -0.12885561346048557
      0.20525881490210862 -0.40839757920980435 -0.31739680194458669
      0.29394447301218041 1.1662439229032935 0.10093649966154271
      0.20008632394103304 -0.22706561553541385 0.13297064356859944
      -0.87936921503457732 0.88328285676431362 0.69969376246886261
      1.1222607021591833 -0.22667668820355433 -0.322589034868695
      -0.62733137677688899 0.86131865286013654 0.1497521655992318
      -0.21343667890292642 -0.047931608818211693 0.23636712798903045
      0.3613779410776255 -0.4780338148066649 -0.18797614653115913
      -0.30834283052552058 0.13769981963534014 -0.76538390849392046
      -0.67869893736150233 -0.43349609166211928 -0.47399666393403539
      -0.52452718952687039 -0.18642474326856842 -0.76633170714005694
      0.20163284877302093 -0.57201022824577918 0.034061702203559058
      0.10273064369917412 -0.66426199463407709 0.72805318783610684
      -0.27592543040275236 -0.032241764172561797 -1.2002844940682211
      0.28727537417038007 -0.19617607802869383 0.68362797794650598
      -0.23125816910780134 0.34194814439879018 -0.020105841756928484
      -0.067605560381538282 0.20193447772828249 -0.0079237188438555494
      0.62892606672992479 -1.2821054250385744 0.40848357574731453
      0.47771704238830615 -0.32571970171606063 0.99287232306251128
      -0.24628024900004863 -0.21075382753864175 0.65392701956529542
      -0.81613611724185386 -0.38159594847869788 -0.43973438294436984
      -0.31258787583287279 0.33056961368234422 -0.30282874893718331
      -0.33710604967482999 0.49881167281805955 0.72055419445734969
      -0.013290427862483311 0.25763657882481711 -0.49007444683588103
      -0.19178901399368231 -0.874203677087939 0.72811682445073256
      0.62775198635165308 0.90089090189357091 -0.3853049665716583
      -0.2958306812746781 -0.47233951950522313 0.77512375937038003
      0.28552461101553228 -0.11483023011753259 0.099801770830858061
      0.28389564539350259 0.46378876123192575 -0.36436837568038782
      0.094016122220297427 -0.4897060726757349 0.14689920381610891
      -1.3400219163425491 -0.52463375212257468 -0.54953824838000798
      -0.38295753179113301 -0.60513320886851329 -0.048740344704788233
      -0.78592746109101153 0.12607996387918038 -0.91844166045554809
      0.118264220689046 0.10116531662843831 -0.66484922917528511
      0.45132224397332427 0.091592098057784621 0.16931641778204615
      -1.1569989726486907 0.35514403896816549 -0.11190559851564241
